\data\
ngram 1=3699
ngram 2=11359
ngram 3=13714

\1-grams:
-3.42177	!	-0.72560
-4.19992	$11.50	-0.26430
-3.89889	$12.50	-0.26050
-4.19992	$15.5	-0.27555
-4.19992	$17	-0.26430
-4.19992	$22	-0.26430
-4.19992	$500,000	-0.27523
-4.19992	$8.5	-0.27555
-3.89889	&	-0.27555
-4.19992	'low	-0.27561
-4.19992	(	-0.27552
-2.89889	)	-1.24472
-3.89889	,	-0.27540
-2.87770	.	-1.57088
-3.19992	0	-0.47963
-4.19992	0.1	-0.25971
-4.19992	0.16	-0.27444
-4.19992	0.36	-0.25971
-3.89889	0.6	-0.56074
-4.19992	0.70	-0.27555
-3.08598	1	-0.35285
-4.19992	1,080,062	-0.27561
-4.19992	1,212,000	-0.27386
-4.19992	1,419,833	-0.27330
-4.19992	1,541,991	-0.26430
-3.50095	10	-0.27389
-3.50095	100	-0.48627
-3.72280	11	-0.27491
-4.19992	11,744	-0.24866
-3.89889	12	-0.27520
-4.19992	122,158	-0.24866
-3.89889	14	-0.27502
-4.19992	1492	-0.27561
-4.19992	17	-0.27502
-4.19992	1700	-0.26493
-4.19992	1834	-0.24866
-4.19992	185,000	-0.27164
-4.19992	1896	-0.24866
-4.19992	1899	-0.24866
-4.19992	1900	-0.27193
-4.19992	1900's	-0.24866
-4.19992	1910	-0.25971
-4.19992	1912	-0.24866
-4.19992	1921	-0.24866
-4.19992	1928	-0.24866
-4.19992	1930	-0.27401
-3.89889	1953	-0.26487
-4.19992	1957	-0.24866
-4.19992	1959	-0.24866
-3.50095	1960	-0.23516
-3.59786	1961	-0.24643
-3.15853	2	-0.36480
-4.19992	2,963	-0.24866
-4.19992	20	-0.27555
-4.19992	200	-0.27558
-4.19992	21	-0.27532
-4.19992	22	-0.27561
-4.19992	22-acre	-0.27561
-3.89889	23	-0.27418
-3.89889	25	-0.26463
-3.12074	3	-0.31008
-4.19992	3,000	-0.27561
-4.19992	3,399	-0.27537
-4.19992	3-month	-0.27540
-4.19992	30	-0.27534
-4.19992	33	-0.27558
-4.19992	36	-0.27532
-3.42177	4	-0.21361
-4.19992	4,122,354	-0.27459
-4.19992	4,441	-0.27287
-4.19992	4,499,608	-0.27476
-4.19992	4,622,444	-0.24866
-3.89889	40	-0.57635
-3.89889	400	-0.27479
-4.19992	41	-0.27561
-4.19992	45	-0.27532
-4.19992	46th	-0.27508
-3.29683	5	-0.37125
-4.19992	5,000	-0.27558
-4.19992	5-5	-0.27319
-4.19992	50	-0.24866
-4.19992	500	-0.27561
-4.19992	52	-0.27558
-4.19992	52-year	-0.27549
-3.50095	6	-0.34489
-4.19992	60	-0.27549
-4.19992	64-cent	-0.27561
-4.19992	65	-0.24866
-3.72280	7	-0.42414
-4.19992	7,360,187	-0.27476
-4.19992	7,484,268	-0.27476
-3.72280	7-1	-0.27494
-4.19992	700	-0.27561
-4.19992	78-79	-0.24866
-3.72280	8	-0.42414
-4.19992	80	-0.27532
-4.19992	85	-0.27164
-3.89889	9	-0.57608
-4.19992	9,273	-0.27552
-4.19992	9,910,741	-0.24866
-4.19992	90	-0.27532
-4.19992	98	-0.27558
-4.19992	:	-0.24866
-2.33069	;	-1.81457
-1.24568	</s>
-99.00000	<s>	-0.44941
-2.34259	?	-1.80273
-1.61446	a	-0.32813
-4.19992	abdomen	-0.26430
-4.19992	abilities	-0.27508
-4.19992	ability	-0.27526
-4.19992	abject	-0.27561
-3.72280	able	-0.27520
-2.73752	about	-0.21836
-3.72280	above	-0.23561
-4.19992	above-water	-0.27540
-4.19992	absolute	-0.27561
-4.19992	abstractedness	-0.27149
-4.19992	abuse	-0.27330
-3.89889	accent	-0.26469
-4.19992	accept	-0.24755
-4.19992	acceptance	-0.25971
-4.19992	accepted	-0.24755
-4.19992	access	-0.26493
-3.89889	accidental	-0.27424
-4.19992	accomplish	-0.27287
-4.19992	according	-0.27164
-4.19992	accounts	-0.27398
-4.19992	accuracy	-0.24866
-4.19992	accurate	-0.27558
-4.19992	accusations	-0.27354
-4.19992	accusingly	-0.27558
-4.19992	accustomed	-0.27558
-3.42177	ace	-0.25763
-3.72280	aces	-0.26902
-4.19992	achieve	-0.27540
-3.89889	acquainted	-0.57296
-4.19992	acquire	-0.27555
-4.19992	acquitted	-0.25971
-3.59786	across	-0.35654
-3.50095	act	-0.29392
-4.19992	acting	-0.27508
-3.29683	action	-0.30855
-4.19992	actions	-0.27552
-3.72280	active	-0.24742
-3.89889	activities	-0.24860
-4.19992	activity	-0.24866
-4.19992	actor's	-0.27468
-4.19992	actually	-0.27558
-4.19992	adams	-0.27561
-4.19992	adamson	-0.27348
-4.19992	adapt	-0.27164
-4.19992	add	-0.26430
-3.89889	added	-0.27540
-4.19992	additional	-0.27558
-4.19992	additions	-0.24866
-3.89889	address	-0.24746
-3.89889	adenauer	-0.26385
-4.19992	adenauer's	-0.27540
-4.19992	adjustments	-0.27371
-4.19992	administration	-0.27540
-3.89889	administration's	-0.27453
-4.19992	admission	-0.27164
-3.89889	adult	-0.27514
-4.19992	adults	-0.24866
-4.19992	advertising	-0.27401
-3.89889	advisory	-0.57655
-4.19992	advocate	-0.27354
-2.87770	af	-0.49311
-4.19992	affection	-0.27546
-4.19992	affinity	-0.27137
-4.19992	afflicted	-0.27552
-4.19992	afford	-0.27257
-4.19992	afraid	-0.25971
-3.89889	africa	-0.24606
-4.19992	african	-0.27555
-3.42177	after	-0.41906
-3.89889	afternoon	-0.24618
-3.59786	again	-0.27120
-4.19992	against	-0.24755
-4.19992	age	-0.26493
-3.72280	agencies	-0.26748
-4.19992	agent	-0.25971
-4.19992	aggressive	-0.27561
-4.19992	aging	-0.27555
-3.72280	ago	-0.42469
-3.72280	agree	-0.27026
-4.19992	agreed	-0.24866
-3.89889	agreement	-0.26946
-3.89889	ahead	-0.26242
-4.19992	aid	-0.24755
-4.19992	aids	-0.24866
-4.19992	aims	-0.24866
-4.19992	air	-0.26493
-4.19992	al's	-0.27523
-3.89889	ala.	-0.54969
-4.19992	alabama	-0.26493
-4.19992	alerted	-0.27164
-4.19992	alienates	-0.27514
-3.89889	alive	-0.26427
-2.55647	all	-0.26089
-4.19992	allied	-0.27164
-3.89889	allotted	-0.27532
-4.19992	allotting	-0.26430
-4.19992	allowed	-0.27485
-3.29683	almost	-0.24193
-3.89889	aloes	-0.24860
-3.72280	alone	-0.24108
-3.59786	along	-0.25959
-3.29683	also	-0.36684
-4.19992	alter	-0.27523
-4.19992	altruism	-0.27450
-3.72280	always	-0.27465
-3.89889	am	-0.27546
-4.19992	amateur	-0.27558
-4.19992	ambition	-0.24866
-3.89889	ambitious	-0.54969
-4.19992	america	-0.24866
-3.42177	american	-0.35450
-4.19992	americans	-0.27398
-3.50095	among	-0.46828
-3.89889	amount	-0.56074
-4.19992	amounts	-0.27164
-4.19992	amusing	-0.24866
-2.54671	an	-0.33463
-4.19992	analysis	-0.27555
-4.19992	analyzed	-0.27401
-3.89889	anatomy	-0.25748
-1.63882	and	-0.20028
-4.19992	angle	-0.25971
-4.19992	anguished	-0.27348
-4.19992	animal	-0.27269
-4.19992	animals	-0.27348
-4.19992	ankle	-0.26493
-3.89889	ann	-0.27558
-4.19992	announcing	-0.24866
-4.19992	annual	-0.27561
-4.19992	anonymous	-0.27561
-3.24568	another	-0.29765
-3.42177	answer	-0.41144
-4.19992	answered	-0.27546
-4.19992	answers	-0.27552
-4.19992	anti-communist	-0.27555
-3.89889	anti-secrecy	-0.27555
-4.19992	anticipated	-0.27561
-4.19992	anvil	-0.24755
-3.19992	any	-0.27363
-3.50095	anyone	-0.46937
-3.50095	anything	-0.25669
-4.19992	anyway	-0.24866
-3.89889	anywhere	-0.24724
-4.19992	apologetically	-0.27555
-4.19992	appalling	-0.27546
-4.19992	appeal	-0.27269
-3.72280	appear	-0.42215
-4.19992	appearing	-0.27482
-3.89889	appears	-0.54969
-4.19992	appendages	-0.24866
-4.19992	applied	-0.27257
-4.19992	applying	-0.27549
-4.19992	appointed	-0.27549
-4.19992	appointment	-0.27555
-4.19992	appreciable	-0.27558
-4.19992	appreciate	-0.27552
-4.19992	appreciation	-0.27137
-3.89889	apprentice	-0.23726
-4.19992	approach	-0.27558
-4.19992	approached	-0.27257
-4.19992	approaches	-0.24755
-4.19992	approval	-0.27546
-4.19992	approve	-0.24866
-4.19992	approvingly	-0.26430
-4.19992	approximated	-0.27453
-4.19992	april-june	-0.27546
-4.19992	arbitrarily	-0.27561
-4.19992	arbitrary	-0.27456
-4.19992	archenemy	-0.26493
-4.19992	architect	-0.27552
-2.44404	are	-0.27234
-4.19992	area	-0.27546
-3.59786	areas	-0.24736
-3.08598	argiento	-0.30008
-4.19992	argued	-0.27149
-4.19992	argument	-0.27149
-3.89889	arimathea	-0.27228
-4.19992	arise	-0.27377
-4.19992	arisen	-0.27287
-4.19992	arm	-0.27537
-4.19992	arms	-0.27532
-4.19992	arnold	-0.27561
-3.24568	around	-0.27500
-4.19992	arrange	-0.26430
-4.19992	arranged	-0.24866
-4.19992	arrangement	-0.27193
-4.19992	arrington	-0.26493
-3.59786	arrived	-0.36715
-3.50095	art	-0.24500
-4.19992	artificiality	-0.26493
-2.19560	as	-0.47535
-4.19992	ascend	-0.27164
-3.12074	ask	-0.30356
-3.50095	asked	-0.24306
-3.89889	asking	-0.26949
-4.19992	aspect	-0.25971
-3.89889	aspects	-0.25444
-4.19992	assail	-0.27558
-4.19992	assess	-0.27558
-4.19992	assign	-0.26430
-4.19992	assigned	-0.27561
-3.50095	assimilation	-0.33382
-3.89889	associated	-0.57296
-3.89889	association	-0.25444
-4.19992	associations	-0.27561
-4.19992	associatively	-0.27529
-4.19992	assumed	-0.27149
-4.19992	assumption	-0.27558
-4.19992	assuring	-0.27377
-2.29683	at	-0.46322
-3.89889	atmosphere	-0.27114
-4.19992	attached	-0.27164
-4.19992	attachment	-0.27164
-4.19992	attack	-0.27508
-4.19992	attacks	-0.25971
-4.19992	attempt	-0.27561
-4.19992	attend	-0.27193
-4.19992	attendance	-0.25971
-3.89889	attention	-0.24328
-3.89889	attitude	-0.25444
-3.89889	attitudes	-0.24425
-4.19992	attorney	-0.27444
-4.19992	atty.	-0.27561
-4.19992	audibly	-0.24866
-4.19992	audio-visual	-0.27561
-4.19992	authentic	-0.27561
-3.59786	authority	-0.24534
-3.89889	autism	-0.26436
-3.15853	autistic	-0.51029
-4.19992	auto	-0.27561
-3.89889	available	-0.26884
-4.19992	avenue	-0.24866
-4.19992	average	-0.27561
-3.89889	avoid	-0.24752
-4.19992	avoided	-0.27401
-4.19992	awaits	-0.27561
-4.19992	awareness	-0.25971
-3.89889	away	-0.27190
-3.89889	b	-0.54969
-4.19992	b.	-0.27558
-4.19992	bachelor	-0.27529
-3.02383	back	-0.30978
-4.19992	backed	-0.27476
-4.19992	background	-0.24866
-3.89889	backs	-0.25587
-3.59786	bad	-0.27392
-4.19992	badly	-0.24866
-4.19992	bailey	-0.25971
-4.19992	balance	-0.27055
-4.19992	bald	-0.26493
-4.19992	ball	-0.27558
-4.19992	baltimore	-0.27070
-3.72280	bank	-0.25787
-3.59786	bankers	-0.24832
-4.19992	banquet	-0.27330
-4.19992	bar	-0.27546
-4.19992	bars	-0.27552
-4.19992	base	-0.24866
-4.19992	baseball	-0.27549
-4.19992	baseline	-0.27137
-4.19992	bases	-0.27482
-4.19992	basic	-0.27561
-4.19992	basin	-0.26493
-4.19992	basis	-0.24866
-3.89889	bastard	-0.24428
-4.19992	bat	-0.24866
-3.89889	batting	-0.27543
-4.19992	battle	-0.27137
-3.89889	be	-0.26391
-3.89889	beach	-0.27333
-4.19992	beard	-0.26493
-4.19992	bearings	-0.27552
-4.19992	beats	-0.27468
-4.19992	became	-0.27152
-3.08598	because	-0.48924
-3.29683	become	-0.24575
-3.89889	becomes	-0.24746
-4.19992	becoming	-0.27558
-4.19992	bed	-0.27546
-2.73752	been	-0.22675
-4.19992	beer	-0.27561
-2.96947	before	-0.41756
-3.19992	began	-0.33271
-4.19992	begin	-0.27193
-3.72280	beginning	-0.43547
-3.89889	begins	-0.27389
-3.72280	behind	-0.23340
-3.29683	being	-0.30458
-4.19992	beings	-0.27558
-4.19992	belief	-0.27456
-4.19992	beliefs	-0.24866
-3.50095	believe	-0.35110
-4.19992	believes	-0.27433
-3.89889	belongs	-0.57267
-4.19992	below	-0.27415
-4.19992	belt	-0.27517
-4.19992	belting	-0.27561
-4.19992	benefactor	-0.24866
-3.89889	berlin	-0.56596
-4.19992	berlin's	-0.27561
-3.89889	bernoulli	-0.27403
-4.19992	bert	-0.27558
-4.19992	beside	-0.27377
-3.89889	best	-0.24752
-4.19992	betrayer	-0.27558
-3.08598	better	-0.45753
-3.15853	between	-0.25658
-4.19992	beyond	-0.24755
-3.89889	bible	-0.27555
-4.19992	biblical	-0.27561
-4.19992	bickering	-0.24866
-4.19992	bid	-0.27558
-3.72280	big	-0.27351
-3.89889	bill	-0.27555
-2.69477	binomial	-0.70773
-4.19992	bird	-0.27485
-3.72280	birds	-0.27181
-4.19992	birmingham	-0.27558
-4.19992	birth	-0.24866
-4.19992	bismarck	-0.27534
-4.19992	bites	-0.27152
-3.72280	black	-0.27546
-4.19992	black's	-0.24755
-4.19992	black-haired	-0.26493
-3.89889	blackened	-0.27491
-4.19992	blaming	-0.27546
-4.19992	blanket	-0.27561
-4.19992	blankets	-0.24866
-4.19992	blinds	-0.26493
-3.89889	bloc	-0.54969
-4.19992	blocked	-0.27330
-3.89889	blood	-0.24863
-4.19992	bloody	-0.24866
-4.19992	blow	-0.27529
-4.19992	blue	-0.27561
-4.19992	bluster	-0.27479
-3.72280	board	-0.42472
-4.19992	boards	-0.26493
-4.19992	bodies	-0.27552
-3.15853	body	-0.30884
-4.19992	bogged	-0.27520
-3.89889	bogy	-0.57626
-4.19992	boil	-0.27561
-4.19992	boiled	-0.27561
-3.89889	boiling	-0.27316
-4.19992	bologna	-0.27517
-4.19992	bolting	-0.24866
-3.89889	bond	-0.27517
-3.89889	bone	-0.24863
-3.72280	book	-0.23494
-4.19992	book's	-0.27555
-4.19992	books	-0.27514
-4.19992	boost	-0.27558
-4.19992	booth	-0.27543
-4.19992	born	-0.27319
-3.89889	bosom	-0.26113
-3.05379	both	-0.31885
-4.19992	bother	-0.27377
-4.19992	bothered	-0.27377
-3.89889	bought	-0.27468
-3.89889	bounce	-0.57623
-4.19992	bow	-0.27520
-3.89889	box	-0.54969
-3.72280	boxell	-0.24814
-3.29683	boy	-0.47258
-4.19992	boy's	-0.27561
-4.19992	boys	-0.26493
-4.19992	brambles	-0.27555
-3.50095	brandt	-0.26362
-4.19992	brandt's	-0.27543
-4.19992	brandy	-0.24755
-4.19992	break	-0.27354
-4.19992	breath	-0.27234
-3.89889	breeding	-0.57623
-4.19992	bridge	-0.26493
-4.19992	brief	-0.27395
-4.19992	briefly	-0.27502
-4.19992	brilliant	-0.27561
-3.72280	bring	-0.26943
-4.19992	broad	-0.27561
-4.19992	broken	-0.27558
-4.19992	bronze	-0.26493
-4.19992	brooks	-0.27561
-4.19992	brother	-0.27395
-4.19992	brothers	-0.27459
-3.42177	brought	-0.25343
-3.89889	brown	-0.57652
-4.19992	brutality	-0.27164
-4.19992	bryan	-0.27561
-4.19992	buddy	-0.25971
-4.19992	budget	-0.25971
-4.19992	budgeted	-0.27137
-3.89889	building	-0.24662
-4.19992	built	-0.24755
-4.19992	bulky	-0.27561
-3.29683	bull's-eye	-0.43366
-3.50095	bull's-eyes	-0.23279
-4.19992	bulletin	-0.27555
-4.19992	bullets	-0.27508
-4.19992	bunched	-0.27508
-4.19992	bundestag	-0.27561
-4.19992	burden	-0.24866
-4.19992	burial	-0.24866
-4.19992	burke	-0.27561
-4.19992	burke's	-0.27561
-4.19992	burning	-0.27508
-4.19992	burr	-0.27561
-3.50095	business	-0.24438
-2.43649	but	-0.32519
-3.89889	buy	-0.27529
-2.45173	by	-0.37557
-3.89889	cable	-0.27558
-4.19992	cafe	-0.27234
-3.72280	cage	-0.24851
-4.19992	cain	-0.27193
-3.89889	california	-0.57559
-4.19992	california's	-0.27558
-3.59786	call	-0.23308
-3.35482	called	-0.29008
-3.89889	calling	-0.27430
-3.72280	calls	-0.23608
-4.19992	calm	-0.24755
-4.19992	calming	-0.27558
-3.29683	came	-0.26537
-4.19992	camera	-0.27348
-4.19992	camilla	-0.27552
-4.19992	campagna	-0.27558
-4.19992	campaigns	-0.27354
-4.19992	campus	-0.26493
-2.64362	can	-0.26983
-3.50095	can't	-0.27456
-3.59786	cannot	-0.27502
-4.19992	canting	-0.27561
-4.19992	capable	-0.25971
-4.19992	captive	-0.27561
-3.89889	car	-0.57640
-4.19992	card	-0.27137
-4.19992	cardinal	-0.25971
-3.89889	cards	-0.24764
-4.19992	career	-0.25971
-4.19992	careers	-0.27561
-3.89889	careful	-0.27380
-3.42177	carefully	-0.34817
-4.19992	carl	-0.27555
-4.19992	carolyn	-0.27561
-4.19992	caron	-0.27561
-4.19992	carrara	-0.27558
-4.19992	carrel	-0.27561
-3.89889	carried	-0.26379
-4.19992	carruthers	-0.26493
-3.89889	carry	-0.24724
-4.19992	carrying	-0.24755
-3.59786	cars	-0.24325
-4.19992	carty	-0.26493
-3.72280	carving	-0.25581
-4.19992	case	-0.25971
-3.72280	cases	-0.24356
-3.89889	cast	-0.57608
-4.19992	catching	-0.27482
-4.19992	catechism	-0.27546
-4.19992	categories	-0.25971
-3.89889	category	-0.27529
-3.89889	caught	-0.24724
-3.89889	cause	-0.25459
-4.19992	cautiously	-0.27485
-3.89889	cave	-0.26490
-4.19992	cease-fire	-0.24866
-3.89889	cen-tennial	-0.57620
-3.15853	cent	-0.45994
-3.59786	center	-0.35651
-4.19992	central	-0.27164
-4.19992	century	-0.27537
-3.72280	certain	-0.27508
-4.19992	certainly	-0.27549
-4.19992	certificate	-0.25971
-4.19992	chair	-0.27269
-4.19992	chairs	-0.27319
-4.19992	challenging	-0.27555
-3.72280	chance	-0.25962
-3.72280	chancellor	-0.27430
-4.19992	chandelier	-0.24866
-3.89889	change	-0.24316
-3.89889	changes	-0.24838
-3.42177	chapter	-0.23427
-4.19992	chapters	-0.27529
-3.72280	character	-0.26020
-4.19992	characterized	-0.27537
-3.89889	characters	-0.26460
-4.19992	charge	-0.27401
-4.19992	charged	-0.27193
-4.19992	charges	-0.27354
-4.19992	charles	-0.27561
-4.19992	chastity	-0.27319
-4.19992	cheap	-0.27561
-4.19992	check	-0.27558
-4.19992	chest	-0.27377
-4.19992	chicago	-0.27561
-3.08598	child	-0.33408
-3.42177	children	-0.20368
-4.19992	chinese	-0.27558
-4.19992	chinese-inspired	-0.27552
-3.50095	chip	-0.67331
-4.19992	chippendale	-0.27561
-4.19992	chisels	-0.27482
-3.72280	choice	-0.43053
-4.19992	choices	-0.27555
-4.19992	choking	-0.27537
-4.19992	choose	-0.27479
-4.19992	choosing	-0.26430
-3.89889	chosen	-0.24693
-4.19992	chris	-0.27055
-3.50095	christ	-0.35777
-3.89889	christ's	-0.57635
-3.29683	christian	-0.33316
-3.89889	christiansen	-0.57658
-4.19992	chronological	-0.27476
-2.58714	church	-0.34781
-4.19992	church's	-0.27532
-3.35482	churches	-0.23793
-4.19992	churchyard	-0.27269
-4.19992	circles	-0.25971
-4.19992	circulating	-0.27502
-3.72280	circumstances	-0.24416
-4.19992	citations	-0.27137
-4.19992	citizens	-0.27444
-3.24568	city	-0.32686
-4.19992	civil	-0.27558
-4.19992	civilian	-0.24866
-3.59786	claim	-0.25322
-4.19992	claps	-0.27433
-4.19992	clarifying	-0.24755
-4.19992	clasping	-0.26430
-3.50095	class	-0.21712
-3.50095	classes	-0.33076
-4.19992	classify	-0.27546
-4.19992	classroom	-0.27555
-3.50095	clay	-0.23872
-3.89889	clean	-0.24851
-3.89889	cleaner	-0.27505
-4.19992	cleaners	-0.27561
-3.89889	cleaning	-0.26490
-3.59786	clear	-0.34352
-4.19992	clenches	-0.27468
-4.19992	cleverly	-0.27561
-4.19992	climactic	-0.27561
-4.19992	climate	-0.25971
-4.19992	climax	-0.27552
-4.19992	climb	-0.27415
-4.19992	clings	-0.27558
-4.19992	cloak	-0.27561
-3.89889	close	-0.24328
-3.89889	closed	-0.24860
-3.72280	closely	-0.27543
-3.72280	cloth	-0.25328
-4.19992	clothes	-0.24866
-3.89889	cloud	-0.24860
-3.50095	club	-0.23944
-4.19992	clubs	-0.27456
-4.19992	cluck	-0.27561
-3.89889	clue	-0.57267
-3.19992	co.	-0.36717
-3.89889	coach	-0.27263
-4.19992	coalition	-0.27555
-4.19992	coarseness	-0.25971
-3.89889	coast	-0.27078
-4.19992	coffee	-0.27561
-4.19992	coin	-0.27055
-4.19992	coincidence	-0.27149
-3.72280	cold	-0.45155
-4.19992	coldness	-0.26493
-4.19992	colee	-0.25971
-4.19992	collect	-0.27482
-4.19992	collection	-0.25971
-4.19992	collectively	-0.27546
-4.19992	college	-0.27070
-3.89889	colonel	-0.27552
-4.19992	colony	-0.27371
-3.35482	color	-0.30376
-3.72280	colored	-0.44940
-3.72280	coloring	-0.27520
-3.72280	colors	-0.26961
-4.19992	columbus	-0.27561
-4.19992	combat-inflicted	-0.27555
-3.59786	combination	-0.86177
-3.29683	come	-0.29873
-3.72280	comes	-0.44585
-4.19992	comforting	-0.27377
-3.29683	coming	-0.29680
-4.19992	commendable	-0.27395
-4.19992	commented	-0.27526
-4.19992	comments	-0.24866
-4.19992	commissioners	-0.27269
-3.89889	commissions	-0.27555
-3.89889	commitment	-0.25971
-4.19992	commitments	-0.27164
-3.59786	committee	-0.26999
-4.19992	committees	-0.26493
-4.19992	common	-0.27549
-4.19992	commonly	-0.27561
-4.19992	commonness	-0.27561
-4.19992	communication	-0.24866
-4.19992	communism	-0.27558
-3.89889	communist	-0.57661
-4.19992	community	-0.27456
-3.72280	companies	-0.26466
-3.50095	company	-0.26650
-4.19992	company's	-0.27561
-4.19992	comparative	-0.27558
-4.19992	compared	-0.27193
-4.19992	comparison	-0.24755
-4.19992	competitive	-0.27561
-3.89889	compeyson	-0.27149
-4.19992	complained	-0.27368
-4.19992	complaint	-0.24866
-3.59786	complete	-0.27491
-4.19992	completed	-0.27453
-4.19992	completing	-0.26430
-3.72280	complex	-0.24857
-3.72280	composed	-0.73684
-4.19992	composite	-0.27552
-4.19992	compresses	-0.27555
-4.19992	compromise	-0.24866
-4.19992	computed	-0.27401
-4.19992	conceal	-0.27433
-4.19992	conceivable	-0.27149
-3.89889	concentrated	-0.27459
-4.19992	concentrating	-0.27319
-4.19992	concept	-0.27479
-4.19992	concerned	-0.24866
-3.89889	concerning	-0.24628
-4.19992	concerns	-0.27552
-3.89889	concluded	-0.27187
-4.19992	concrete	-0.27269
-4.19992	concussion	-0.26493
-3.72280	conditions	-0.25845
-3.59786	conduct	-0.25352
-3.72280	conducted	-0.27307
-4.19992	conducting	-0.24755
-3.59786	conference	-0.37280
-4.19992	confers	-0.27561
-4.19992	confident	-0.24755
-4.19992	confirmation	-0.27257
-4.19992	conflicts	-0.27149
-4.19992	congo	-0.27552
-4.19992	congo's	-0.27561
-4.19992	congratulation	-0.27164
-3.35482	congregation	-0.35179
-4.19992	congress	-0.27055
-4.19992	connection	-0.27532
-4.19992	consensus	-0.27330
-4.19992	conservative	-0.27555
-4.19992	consider	-0.27552
-4.19992	considerable	-0.27520
-4.19992	consideration	-0.24755
-4.19992	considered	-0.27561
-4.19992	considering	-0.27502
-4.19992	consist	-0.25971
-4.19992	consistency	-0.25971
-4.19992	consistently	-0.24866
-4.19992	consisting	-0.25971
-3.50095	consists	-0.95868
-4.19992	constancy	-0.25971
-3.89889	constant	-0.27316
-4.19992	constituting	-0.26430
-4.19992	constructed	-0.24755
-4.19992	consult	-0.27152
-3.72280	contact	-0.44289
-4.19992	contadini	-0.27561
-4.19992	contempt	-0.26493
-4.19992	context	-0.27055
-4.19992	continental	-0.27517
-4.19992	continued	-0.27435
-4.19992	continues	-0.27549
-4.19992	continuously	-0.27561
-4.19992	contract	-0.24866
-4.19992	contrary	-0.27561
-4.19992	contrast	-0.27532
-4.19992	contriving	-0.27433
-3.59786	control	-0.23343
-4.19992	controversial	-0.27526
-4.19992	convenience	-0.27546
-3.89889	convenient	-0.27502
-4.19992	conveys	-0.27523
-3.89889	convict	-0.27345
-4.19992	convict's	-0.27561
-4.19992	conviction	-0.27549
-3.89889	convinced	-0.27125
-4.19992	convincingly	-0.27269
-4.19992	cooking	-0.24866
-4.19992	coolly	-0.27558
-4.19992	cooperated	-0.27561
-4.19992	coordinate	-0.27561
-4.19992	core	-0.27561
-4.19992	corp.	-0.25971
-4.19992	corps	-0.27435
-3.89889	correct	-0.24553
-4.19992	corresponds	-0.27164
-3.89889	corruption	-0.56074
-4.19992	cost	-0.27070
-3.19992	cotton	-0.42469
-4.19992	cotton-growing	-0.27540
-4.19992	couch	-0.24866
-2.83819	could	-0.32933
-4.19992	council	-0.27476
-4.19992	councils	-0.26493
-4.19992	counsel	-0.24866
-4.19992	counted	-0.27555
-4.19992	counting	-0.27558
-3.59786	country	-0.37332
-3.42177	county	-0.27500
-3.50095	couple	-0.22401
-3.59786	couples	-0.27275
-4.19992	courageously	-0.27561
-3.59786	course	-0.26635
-4.19992	courtyard	-0.27558
-3.89889	cover	-0.24733
-4.19992	covered	-0.27257
-4.19992	covering	-0.27257
-4.19992	coverings	-0.26493
-4.19992	covers	-0.27137
-4.19992	cracked	-0.24755
-3.72280	crash	-0.26896
-4.19992	crayons	-0.27479
-4.19992	crazy	-0.27348
-4.19992	create	-0.26430
-4.19992	created	-0.27526
-4.19992	creates	-0.27468
-3.89889	creating	-0.24749
-3.89889	creative	-0.27502
-4.19992	creep	-0.27152
-4.19992	crescendo	-0.27453
-3.89889	crewel	-0.57655
-3.59786	crime	-0.38799
-4.19992	cripple	-0.24755
-4.19992	crisis	-0.27152
-4.19992	critics	-0.24866
-4.19992	cross	-0.24866
-4.19992	crossed	-0.24755
-4.19992	crouched	-0.27497
-4.19992	crowded	-0.27193
-4.19992	crozier	-0.27561
-3.72280	crucial	-0.27532
-4.19992	crucifix	-0.27537
-4.19992	crucifying	-0.27508
-4.19992	crude	-0.27561
-4.19992	cruelly	-0.27561
-4.19992	cruelty	-0.25971
-4.19992	culminates	-0.27152
-4.19992	cultivation	-0.25971
-4.19992	cultural	-0.27552
-4.19992	curious	-0.27348
-4.19992	customer	-0.26493
-3.59786	customers	-0.23605
-3.72280	cut	-0.23449
-4.19992	cut-glass	-0.27561
-4.19992	d	-0.24866
-4.19992	d.	-0.27561
-4.19992	dade	-0.27546
-4.19992	dag	-0.27561
-4.19992	daily	-0.27401
-4.19992	dainty	-0.27561
-2.87770	dallas	-0.43635
-4.19992	dallas-headquartered	-0.27549
-3.72280	dalloway	-0.24413
-4.19992	damn	-0.27257
-3.89889	danger	-0.27549
-4.19992	dangerous	-0.27468
-3.89889	daniel	-0.26757
-4.19992	dared	-0.27561
-3.89889	dark	-0.27549
-4.19992	date	-0.27520
-4.19992	daughter	-0.27526
-4.19992	davao	-0.24866
-3.72280	david	-0.27552
-3.72280	dawn	-0.24823
-3.42177	day	-0.29313
-3.50095	days	-0.24190
-4.19992	dazzles	-0.24755
-3.42177	dead	-0.23615
-3.72280	deal	-0.27164
-4.19992	dealers	-0.27398
-4.19992	dealing	-0.27193
-3.89889	dealings	-0.57296
-4.19992	dealt	-0.27401
-4.19992	dean	-0.27558
-4.19992	dear	-0.27561
-3.72280	death	-0.23516
-4.19992	death-locked	-0.27558
-4.19992	decay	-0.24866
-3.89889	decide	-0.24749
-3.89889	decided	-0.24341
-3.50095	decision	-0.26502
-4.19992	decisions	-0.27149
-4.19992	declare	-0.27555
-4.19992	declares	-0.27149
-4.19992	decline	-0.27137
-4.19992	decorated	-0.24755
-4.19992	decorating	-0.27561
-4.19992	decorative	-0.27561
-3.89889	decorator	-0.27441
-4.19992	dedicated	-0.27164
-3.89889	dedication	-0.24634
-4.19992	deeds	-0.27468
-3.72280	deep	-0.27552
-3.72280	deeper	-0.26478
-4.19992	defeat	-0.27193
-4.19992	defect	-0.26493
-4.19992	defective	-0.27561
-4.19992	defended	-0.24755
-4.19992	defenses	-0.24866
-4.19992	define	-0.24755
-4.19992	definitely	-0.26430
-4.19992	defy	-0.27558
-4.19992	delegating	-0.27552
-4.19992	deliberate	-0.27561
-3.72280	deliberations	-0.43571
-3.89889	delicate	-0.25968
-4.19992	deliciously	-0.27552
-4.19992	delinquency	-0.24866
-4.19992	delivered	-0.27401
-4.19992	dell'arca	-0.27561
-4.19992	deloris	-0.27561
-3.72280	demand	-0.27108
-4.19992	demanded	-0.26430
-4.19992	demands	-0.27319
-4.19992	democracy	-0.26493
-4.19992	democratic	-0.27552
-3.72280	democrats	-0.45062
-3.89889	demonstration	-0.23659
-4.19992	denied	-0.27377
-3.72280	denomination	-0.44685
-3.89889	denominational	-0.27468
-3.89889	denominations	-0.27415
-4.19992	dependence	-0.24866
-4.19992	depicted	-0.27561
-3.89889	depression	-0.26478
-4.19992	deriving	-0.27287
-4.19992	descent	-0.27459
-3.72280	describe	-0.23573
-4.19992	description	-0.25971
-3.59786	design	-0.37090
-4.19992	designates	-0.26430
-3.89889	designed	-0.27540
-4.19992	desirable	-0.27558
-3.89889	desire	-0.24403
-4.19992	desiring	-0.27561
-4.19992	desperately	-0.27558
-3.89889	despite	-0.54858
-4.19992	destroy	-0.27546
-4.19992	detail	-0.25971
-4.19992	detailed	-0.27558
-4.19992	details	-0.27543
-3.89889	determine	-0.24628
-4.19992	determined	-0.24866
-4.19992	determines	-0.24755
-3.89889	detroit	-0.27363
-3.89889	develop	-0.27430
-4.19992	developed	-0.24866
-4.19992	developers	-0.25971
-4.19992	developing	-0.24755
-3.89889	development	-0.27076
-4.19992	developments	-0.24866
-4.19992	deviation	-0.27055
-4.19992	device	-0.27137
-4.19992	devilish	-0.27561
-4.19992	devise	-0.26430
-4.19992	devised	-0.26430
-4.19992	devote	-0.26430
-4.19992	devoted	-0.27164
-3.89889	devotion	-0.57267
-4.19992	devotional	-0.27555
-4.19992	diagnosis	-0.27330
-3.42177	dice	-0.35167
-3.35482	dickens	-0.26588
-3.89889	dickens'	-0.27543
-3.08598	did	-0.42049
-3.59786	didn't	-0.27505
-3.42177	die	-0.25760
-4.19992	died	-0.27234
-3.89889	difference	-0.24832
-3.19992	different	-0.26846
-4.19992	differently	-0.24866
-3.72280	difficult	-0.27456
-4.19992	difficulties	-0.24866
-4.19992	difficulty	-0.27401
-4.19992	dining	-0.27529
-3.89889	dinner	-0.26490
-4.19992	dionigi	-0.24866
-4.19992	dipped	-0.27470
-3.89889	direction	-0.24687
-4.19992	dirty	-0.27386
-4.19992	disagrees	-0.27561
-4.19992	disappointing	-0.24866
-4.19992	disarm	-0.24755
-4.19992	discern	-0.24755
-3.89889	discipleship	-0.24814
-4.19992	discourteous	-0.27546
-3.89889	discovered	-0.26068
-3.89889	discovering	-0.24312
-4.19992	discussion	-0.27502
-3.89889	discussions	-0.25684
-4.19992	disfigured	-0.27561
-4.19992	dish	-0.27508
-4.19992	disillusionment	-0.27552
-4.19992	disinterest	-0.24866
-4.19992	dislike	-0.25971
-4.19992	disliked	-0.27386
-4.19992	dismal	-0.27561
-4.19992	dismaying	-0.27269
-4.19992	dismemberment	-0.25971
-4.19992	disrobe	-0.27459
-4.19992	dissenting	-0.27552
-4.19992	distance	-0.24755
-4.19992	distant	-0.27561
-4.19992	distinguish	-0.24755
-4.19992	distinguished	-0.27523
-4.19992	distort	-0.27558
-4.19992	distribute	-0.27534
-3.29683	distribution	-0.22604
-3.59786	distributions	-0.26772
-4.19992	distributive	-0.27558
-4.19992	district	-0.27558
-4.19992	distrusted	-0.26430
-3.89889	disturbed	-0.27371
-4.19992	diverse	-0.27558
-4.19992	dividend	-0.24866
-4.19992	divine	-0.27552
-4.19992	divinely	-0.27561
-4.19992	division	-0.27546
-4.19992	do-it-yourself	-0.27552
-4.19992	doctors	-0.27415
-4.19992	documented	-0.27482
-3.24568	does	-0.48459
-3.72280	doesn't	-0.24842
-4.19992	doing	-0.27526
-4.19992	doldrums	-0.27456
-3.72280	dollars	-0.41335
-3.89889	domestic	-0.27526
-3.15853	don't	-0.31420
-4.19992	done	-0.27330
-3.72280	door	-0.25763
-3.89889	doors	-0.25944
-4.19992	doubt	-0.27555
-3.02383	down	-0.35503
-4.19992	dr.	-0.27555
-3.89889	dramatic	-0.27558
-4.19992	dramatize	-0.24755
-4.19992	dramatizing	-0.27540
-4.19992	draped	-0.27377
-4.19992	draper	-0.27558
-4.19992	draperies	-0.27497
-4.19992	drapery	-0.27371
-4.19992	draw	-0.27561
-3.72280	drawing	-0.22369
-3.89889	drawings	-0.26296
-4.19992	drawl	-0.27149
-3.89889	drawn	-0.27351
-4.19992	draws	-0.27555
-4.19992	dreaded	-0.27152
-4.19992	dreary	-0.27555
-4.19992	dreiser's	-0.27546
-3.89889	drew	-0.26418
-4.19992	dried	-0.26493
-3.89889	driers	-0.26490
-4.19992	drifting	-0.27558
-4.19992	drink	-0.26430
-4.19992	drive	-0.27537
-4.19992	driver	-0.24866
-3.72280	drivers	-0.23586
-4.19992	driving	-0.27552
-4.19992	drop	-0.27377
-4.19992	dropped	-0.27537
-4.19992	drove	-0.27502
-4.19992	drowns	-0.24866
-4.19992	drying	-0.27534
-4.19992	dsm	-0.26493
-4.19992	dug	-0.27482
-4.19992	duplicate	-0.27257
-3.08598	during	-0.56219
-3.89889	dusk	-0.24857
-3.89889	duties	-0.56074
-4.19992	dying	-0.24866
-3.72280	dynamic	-0.27534
-3.89889	e.	-0.27555
-3.89889	e.g.t.	-0.27494
-2.58714	each	-0.41596
-4.19992	earl	-0.27558
-3.72280	earlier	-0.24556
-3.89889	earliest	-0.27555
-3.89889	early	-0.27146
-3.89889	earnestly	-0.27555
-4.19992	earnings	-0.27555
-3.89889	easier	-0.27064
-3.89889	easily	-0.27389
-4.19992	east	-0.27549
-3.89889	easy	-0.26460
-3.89889	eaton	-0.25968
-4.19992	eccentric	-0.27546
-3.89889	economic	-0.27558
-4.19992	economy	-0.24866
-3.89889	edge	-0.23170
-4.19992	edna	-0.27561
-3.89889	education	-0.27552
-4.19992	educational	-0.27555
-3.89889	effect	-0.25717
-3.72280	effective	-0.24755
-4.19992	effectively	-0.27514
-3.89889	effort	-0.27552
-3.72280	efforts	-0.24687
-4.19992	effusive	-0.27561
-3.89889	eight	-0.27485
-4.19992	eighteenth	-0.27561
-4.19992	einstein's	-0.27561
-3.50095	either	-0.35527
-4.19992	elastic	-0.27552
-4.19992	elbow	-0.26493
-4.19992	elected	-0.27558
-3.89889	election	-0.24325
-4.19992	electric	-0.27561
-4.19992	element	-0.25971
-4.19992	elfin	-0.26493
-4.19992	elliott	-0.27555
-4.19992	eloise	-0.24866
-3.89889	else	-0.27543
-4.19992	eluding	-0.24755
-4.19992	embarrassed	-0.27561
-4.19992	embrace	-0.26493
-3.72280	embroidered	-0.27184
-3.59786	embroidery	-0.36919
-4.19992	emerging	-0.27377
-4.19992	emotion	-0.27269
-4.19992	emotionally	-0.27558
-4.19992	emphasis	-0.27319
-4.19992	employ	-0.27561
-4.19992	employees	-0.27505
-3.89889	employes	-0.24618
-4.19992	employment	-0.27561
-3.72280	employs	-0.26308
-4.19992	enacting	-0.27561
-4.19992	enclosed	-0.24755
-4.19992	encounters	-0.27561
-4.19992	encouraging	-0.27540
-3.42177	end	-0.40750
-4.19992	endearing	-0.26493
-4.19992	ended	-0.27476
-4.19992	endures	-0.24755
-4.19992	energy	-0.27348
-4.19992	england	-0.24866
-4.19992	english	-0.27561
-4.19992	enjoy	-0.27555
-4.19992	enjoyed	-0.27520
-3.89889	enjoying	-0.54858
-4.19992	enjoyment	-0.24866
-4.19992	enlarging	-0.25971
-4.19992	enormous	-0.27555
-3.29683	enough	-0.24356
-3.89889	enrich	-0.54858
-4.19992	enslavement	-0.27401
-3.89889	enter	-0.54858
-4.19992	enterprises	-0.24866
-3.50095	entire	-0.27380
-4.19992	entirely	-0.27534
-4.19992	eppler	-0.27558
-4.19992	equal	-0.27386
-3.19992	equipment	-0.45752
-4.19992	equitable	-0.27532
-3.72280	erhart	-0.24231
-3.89889	escape	-0.26302
-4.19992	essay	-0.27561
-4.19992	established	-0.27552
-4.19992	establishes	-0.26430
-4.19992	estate	-0.27561
-3.59786	estella	-0.24193
-4.19992	estella's	-0.27468
-4.19992	estimated	-0.27537
-3.59786	etc.	-0.85072
-4.19992	etiquette	-0.26493
-3.50095	evangelism	-0.35487
-4.19992	eve	-0.25971
-3.08598	even	-0.29930
-4.19992	evening	-0.27193
-4.19992	evenings	-0.26493
-4.19992	eventually	-0.27552
-3.50095	every	-0.37196
-3.59786	everyone	-0.39067
-3.72280	everything	-0.26635
-4.19992	evidence	-0.25971
-4.19992	evils	-0.25971
-3.50095	exactly	-0.37173
-4.19992	examinations	-0.27561
-3.12074	example	-0.28379
-3.50095	examples	-0.25778
-4.19992	exceedingly	-0.27558
-3.72280	excellent	-0.27537
-3.89889	except	-0.27037
-4.19992	exception	-0.27164
-4.19992	exceptional	-0.27555
-4.19992	exclaims	-0.27502
-3.89889	executives	-0.27523
-4.19992	exert	-0.26430
-4.19992	exhibit	-0.27444
-3.89889	exhibiting	-0.24652
-3.89889	exhibition	-0.25968
-4.19992	exist	-0.27561
-4.19992	existed	-0.27234
-4.19992	existence	-0.24866
-4.19992	expanded	-0.27558
-4.19992	expanding	-0.27549
-3.50095	expect	-0.24690
-3.35482	expectations	-0.19415
-3.89889	expected	-0.24746
-4.19992	expects	-0.27555
-4.19992	expeditious	-0.24866
-3.19992	experience	-0.30482
-4.19992	experienced	-0.27558
-3.59786	experiences	-0.36859
-2.80198	experiment	-0.34997
-4.19992	experimentally	-0.27415
-3.89889	experiments	-0.54969
-4.19992	expert	-0.27555
-4.19992	explain	-0.27453
-3.89889	explained	-0.27131
-4.19992	explaining	-0.27164
-4.19992	exploration	-0.24866
-4.19992	explore	-0.27433
-3.89889	export	-0.27511
-4.19992	expressing	-0.27152
-3.72280	expression	-0.26769
-4.19992	expressions	-0.27532
-4.19992	expressive	-0.27482
-4.19992	extend	-0.24755
-4.19992	extended	-0.27561
-4.19992	extending	-0.27152
-4.19992	extensively	-0.27137
-3.89889	extent	-0.27537
-4.19992	extract	-0.24755
-4.19992	extraction	-0.27534
-4.19992	extractors	-0.27561
-4.19992	extraordinary	-0.27558
-4.19992	extreme	-0.27529
-3.59786	eye	-0.53829
-3.42177	eyes	-0.21838
-4.19992	fabric	-0.27558
-4.19992	fabulous	-0.27529
-3.42177	face	-0.42215
-4.19992	faces	-0.27459
-3.72280	facilities	-0.26382
-3.42177	fact	-0.34497
-4.19992	factories	-0.27398
-3.72280	factory	-0.26466
-3.89889	facts	-0.26323
-4.19992	fail	-0.27561
-4.19992	failed	-0.27482
-3.89889	fails	-0.27254
-3.35482	failure	-0.36906
-4.19992	fair	-0.27561
-3.89889	fairly	-0.27532
-3.72280	faith	-0.43881
-3.72280	fall	-0.27301
-4.19992	fallen	-0.27540
-4.19992	falling	-0.27561
-4.19992	families	-0.27149
-3.12074	family	-0.31708
-4.19992	famous	-0.27558
-4.19992	fancy	-0.25971
-3.50095	far	-0.23869
-4.19992	farm	-0.24755
-4.19992	fascinates	-0.27546
-3.89889	fast	-0.26490
-4.19992	fat	-0.27529
-4.19992	fatal	-0.27555
-4.19992	fatalities	-0.27398
-4.19992	father	-0.27234
-4.19992	fault	-0.27354
-4.19992	fawning	-0.27468
-4.19992	fear	-0.25971
-4.19992	fears	-0.27520
-4.19992	feature	-0.25971
-4.19992	february's	-0.27561
-3.89889	federal	-0.27549
-3.50095	feel	-0.23891
-3.72280	feeling	-0.25947
-4.19992	feelings	-0.27482
-4.19992	feels	-0.27453
-4.19992	fees	-0.25971
-3.89889	feet	-0.27456
-4.19992	feigned	-0.27561
-3.72280	fellow	-0.26615
-4.19992	fellows	-0.27070
-3.19992	fellowship	-0.59828
-4.19992	felonious	-0.27552
-3.72280	felt	-0.44740
-4.19992	female	-0.27558
-3.29683	few	-0.27438
-4.19992	fiction	-0.27269
-3.50095	field	-0.22757
-4.19992	fielders	-0.27532
-3.89889	fields	-0.23726
-4.19992	fight	-0.27234
-3.89889	fighting	-0.24662
-3.50095	figure	-0.35445
-3.72280	figures	-0.27532
-4.19992	fil	-0.27561
-4.19992	filipino	-0.24866
-4.19992	fill	-0.24755
-3.89889	filled	-0.27114
-4.19992	filmstrips	-0.27193
-3.72280	finally	-0.27540
-4.19992	finance	-0.24755
-4.19992	finances	-0.24866
-3.89889	financial	-0.27540
-4.19992	financing	-0.27497
-3.15853	find	-0.42500
-4.19992	finder	-0.27386
-3.89889	fine	-0.27494
-3.89889	finger	-0.25717
-3.89889	finger-post	-0.27328
-4.19992	fingernails	-0.24866
-3.72280	fingers	-0.24356
-4.19992	finished	-0.27558
-3.72280	fire	-0.24347
-3.35482	firm	-0.26442
-4.19992	firmer	-0.27546
-4.19992	firmness	-0.27386
-3.35482	firms	-0.24187
-2.85750	first	-0.25668
-4.19992	fittest	-0.24866
-3.12074	five	-0.39862
-4.19992	five-round	-0.27491
-4.19992	fix	-0.27508
-3.59786	fixed	-0.57199
-4.19992	fla.	-0.27558
-4.19992	flanagan	-0.26493
-4.19992	flats	-0.27561
-4.19992	flavor	-0.25971
-4.19992	fleas	-0.27555
-4.19992	flees	-0.27558
-3.89889	flesh	-0.26191
-3.89889	flew	-0.27479
-4.19992	flexibility	-0.24866
-4.19992	flexible	-0.27552
-4.19992	floor	-0.27137
-3.89889	floors	-0.27543
-4.19992	floral	-0.27558
-4.19992	florentine	-0.27561
-3.89889	florida	-0.24640
-3.89889	florida's	-0.27052
-4.19992	floridians	-0.27558
-4.19992	flow	-0.27453
-4.19992	flower	-0.27149
-4.19992	flowers	-0.24755
-4.19992	flowing	-0.27561
-4.19992	flying	-0.27377
-4.19992	focus	-0.24866
-4.19992	focusing	-0.26430
-4.19992	foiles	-0.27561
-4.19992	fold	-0.27497
-3.89889	folds	-0.24690
-3.89889	follow	-0.57617
-4.19992	followed	-0.24755
-3.59786	following	-0.23894
-3.89889	follows	-0.24228
-4.19992	food	-0.27561
-3.42177	foods	-0.27205
-3.89889	football	-0.27543
-2.03557	for	-0.50553
-4.19992	forbids	-0.27552
-3.89889	force	-0.56074
-4.19992	forefinger	-0.26430
-4.19992	foreheads	-0.27561
-4.19992	foreign	-0.27555
-3.59786	forge	-0.36847
-4.19992	forgiveness	-0.26493
-4.19992	forgiving	-0.27561
-4.19992	form	-0.24755
-3.89889	forms	-0.24863
-3.89889	formula	-0.26987
-4.19992	fortitude	-0.25971
-4.19992	fortunately	-0.27479
-4.19992	fortune	-0.27561
-3.59786	found	-0.24618
-3.35482	four	-0.34188
-3.72280	fourth	-0.75249
-4.19992	fragile	-0.27555
-4.19992	framed	-0.26493
-4.19992	francesco	-0.26430
-4.19992	frank	-0.27549
-4.19992	frantic	-0.27555
-4.19992	frantically	-0.27555
-4.19992	fraternity	-0.27456
-3.42177	free	-0.35438
-4.19992	freedom	-0.27193
-4.19992	freeman	-0.26493
-4.19992	french	-0.27377
-3.89889	frequently	-0.26790
-3.89889	fresh	-0.27552
-4.19992	friday	-0.27415
-3.89889	fridays	-0.24637
-4.19992	friend	-0.27552
-3.50095	friends	-0.27246
-4.19992	friendship	-0.27555
-4.19992	frightened	-0.27546
-4.19992	fringe	-0.27552
-3.89889	frito	-0.23726
-2.39374	from	-0.43449
-3.72280	front	-0.43571
-4.19992	frontier	-0.27532
-4.19992	fruitfully	-0.27149
-4.19992	frustrate	-0.27152
-4.19992	fugitive	-0.27558
-3.72280	full	-0.25950
-4.19992	full-grown	-0.27523
-3.89889	fully	-0.27537
-3.89889	fun	-0.56074
-3.89889	function	-0.25950
-4.19992	funeral	-0.27558
-4.19992	furiously	-0.27558
-4.19992	furnishing	-0.27269
-4.19992	furnishings	-0.24866
-4.19992	furniture	-0.27561
-3.89889	further	-0.27427
-4.19992	furtive	-0.27479
-3.89889	future	-0.24860
-4.19992	ga.	-0.24866
-4.19992	gabardine	-0.27193
-4.19992	gain	-0.27561
-4.19992	gained	-0.27561
-3.72280	galli	-0.24848
-4.19992	gangs	-0.27532
-4.19992	garden	-0.25971
-4.19992	gargery	-0.27561
-4.19992	gargery's	-0.27552
-4.19992	gather	-0.27558
-4.19992	gathering	-0.27152
-3.72280	gave	-0.26875
-4.19992	gen.	-0.27561
-3.42177	general	-0.32608
-4.19992	generalize	-0.27485
-3.72280	generally	-0.27534
-4.19992	generosity	-0.27269
-3.89889	genteel	-0.27558
-3.89889	gentile	-0.24755
-4.19992	gentility	-0.26493
-3.89889	gentle	-0.27532
-3.89889	gentleman	-0.27465
-4.19992	george	-0.27558
-3.89889	gerald	-0.27558
-3.89889	germans	-0.26083
-3.50095	germany	-0.24334
-4.19992	germany's	-0.27561
-3.59786	gesture	-0.26008
-4.19992	gestures	-0.25971
-3.08598	get	-0.38885
-3.89889	gets	-0.27479
-3.89889	getting	-0.26008
-4.19992	gifted	-0.27476
-2.99580	gin	-0.53705
-4.19992	ginner's	-0.27558
-3.59786	ginning	-0.39851
-3.59786	girls	-0.27328
-3.12074	give	-0.26396
-4.19992	given	-0.27546
-3.72280	gives	-0.27374
-4.19992	giving	-0.27485
-4.19992	glad	-0.27502
-4.19992	glamour	-0.27348
-4.19992	glance	-0.24755
-4.19992	gloats	-0.27497
-4.19992	globe	-0.24866
-3.89889	glow	-0.24553
-4.19992	glued	-0.27377
-3.29683	go	-0.24253
-4.19992	goals	-0.27459
-3.42177	god	-0.32437
-4.19992	god's	-0.27561
-3.50095	going	-0.49296
-3.89889	gold	-0.26490
-3.72280	gone	-0.27406
-3.19992	good	-0.32616
-3.89889	goodbody	-0.27444
-3.72280	gordin	-0.27546
-3.29683	got	-0.38598
-4.19992	gothic	-0.27386
-3.72280	government	-0.42472
-4.19992	governmental	-0.27546
-4.19992	governments	-0.24755
-4.19992	gowns	-0.25971
-4.19992	grabs	-0.24866
-4.19992	graciously	-0.24866
-4.19992	grade	-0.24866
-4.19992	grader	-0.27555
-4.19992	gradually	-0.27415
-4.19992	grasp	-0.26493
-4.19992	grass	-0.27540
-4.19992	gravely	-0.24866
-4.19992	graven	-0.27558
-3.72280	graves	-0.45129
-4.19992	graveyard	-0.27514
-3.15853	great	-0.52772
-3.50095	greater	-0.37220
-4.19992	greatest	-0.27561
-3.89889	greed	-0.26487
-3.89889	green	-0.27526
-4.19992	greens	-0.26493
-4.19992	greetings	-0.27377
-4.19992	grenades	-0.26493
-4.19992	grey	-0.27546
-3.89889	grief-stricken	-0.27558
-4.19992	grinned	-0.24866
-3.89889	grip	-0.27234
-4.19992	grips	-0.27193
-3.89889	ground	-0.27552
-4.19992	grounds	-0.27055
-3.35482	group	-0.50097
-3.89889	grow	-0.57579
-3.72280	growing	-0.27360
-4.19992	grown	-0.24866
-4.19992	grows	-0.27555
-3.29683	growth	-0.37031
-4.19992	grumble	-0.27479
-4.19992	grumbled	-0.27520
-4.19992	guarantees	-0.27149
-3.89889	guerin	-0.27555
-4.19992	guerrillas	-0.27401
-4.19992	guess	-0.27257
-4.19992	guests	-0.27546
-3.72280	guidance	-0.44090
-3.59786	guilt	-0.23160
-4.19992	gulled	-0.24866
-4.19992	gus	-0.27055
-4.19992	gush	-0.27482
-3.72280	h.	-0.27546
-4.19992	habits	-0.27476
-4.19992	habitually	-0.27561
-2.38038	had	-0.38735
-3.50095	hair	-0.21908
-4.19992	hairless	-0.27555
-3.42177	half	-0.42348
-4.19992	halfway	-0.27549
-3.72280	hall	-0.21858
-3.89889	hammarskjold	-0.27228
-4.19992	hammarskjold's	-0.27555
-4.19992	hammer	-0.27529
-2.87770	hand	-0.22812
-4.19992	hand-to-hand	-0.27558
-4.19992	handcuffs	-0.27456
-4.19992	handed	-0.27444
-4.19992	handicrafts	-0.24866
-4.19992	handled	-0.27526
-4.19992	handles	-0.27517
-2.68141	hands	-0.26840
-4.19992	handshake	-0.27330
-4.19992	hanging	-0.27537
-4.19992	hangs	-0.27561
-4.19992	hank	-0.27561
-3.89889	hansen	-0.26376
-3.72280	happen	-0.24434
-3.50095	happened	-0.33809
-4.19992	happens	-0.27164
-4.19992	happily	-0.27561
-3.89889	happy	-0.24341
-3.89889	hard	-0.24746
-4.19992	hardest	-0.27561
-3.72280	hardly	-0.27511
-4.19992	hardware	-0.26493
-4.19992	hardwicke-etter	-0.27534
-3.89889	harlem	-0.27537
-4.19992	harold	-0.27561
-2.63172	has	-0.35123
-3.59786	hasn't	-0.27540
-2.42177	have	-0.37002
-3.50095	having	-0.27500
-3.72280	havisham	-0.25869
-4.19992	havisham's	-0.27561
-4.19992	hayes	-0.27526
-1.97203	he	-0.55484
-3.89889	he'd	-0.27558
-4.19992	he'll	-0.27526
-3.50095	he's	-0.27453
-3.59786	head	-0.23164
-3.89889	headed	-0.57504
-3.72280	headquarters	-0.27002
-4.19992	heads	-0.24866
-4.19992	hear	-0.25971
-3.89889	heard	-0.25968
-3.89889	heart	-0.26436
-4.19992	heaters	-0.26493
-4.19992	heaving	-0.27558
-4.19992	heavy	-0.27269
-4.19992	hebraic	-0.27561
-4.19992	hectic	-0.27549
-4.19992	heightened	-0.27561
-3.59786	held	-0.24593
-3.29683	help	-0.31768
-4.19992	helper	-0.27549
-4.19992	helpful	-0.27561
-3.89889	helping	-0.27456
-4.19992	helps	-0.27561
-2.54671	her	-0.37914
-3.89889	herbert	-0.57655
-2.99580	here	-0.27425
-4.19992	hero	-0.25971
-4.19992	hero's	-0.27558
-4.19992	heroes	-0.27558
-4.19992	hesitate	-0.27529
-4.19992	hesitated	-0.27137
-4.19992	hesitatingly	-0.27269
-4.19992	hide	-0.26493
-4.19992	hideaway	-0.24866
-3.72280	high	-0.27040
-4.19992	high-school	-0.27558
-3.89889	higher	-0.57661
-4.19992	hillcrest	-0.27348
-2.39374	him	-0.40850
-3.29683	himself	-0.35238
-4.19992	hinckley	-0.27517
-2.05070	his	-0.34980
-3.50095	history	-0.45175
-4.19992	hit	-0.24755
-4.19992	hitting	-0.24755
-3.42177	hold	-0.34548
-4.19992	holding	-0.27377
-3.89889	holds	-0.24783
-4.19992	holiday	-0.27508
-4.19992	homage	-0.27164
-3.19992	home	-0.31638
-3.72280	homes	-0.41335
-3.89889	honored	-0.27389
-4.19992	hope	-0.25971
-4.19992	hopeless	-0.27561
-3.89889	hoping	-0.27146
-4.19992	horse	-0.27386
-3.89889	horses	-0.54969
-4.19992	hospital	-0.27371
-3.50095	hot	-0.24556
-4.19992	hotel	-0.27269
-4.19992	hotels	-0.27149
-3.89889	hour	-0.24727
-3.89889	hours	-0.25331
-3.50095	house	-0.20505
-4.19992	housekeeper	-0.27398
-4.19992	houses	-0.26430
-3.72280	housing	-0.26466
-4.19992	houston	-0.27529
-3.08598	how	-0.27285
-3.72280	however	-0.26757
-4.19992	howls	-0.24866
-3.35482	human	-0.27447
-4.19992	hunch	-0.27561
-4.19992	hundred	-0.27561
-4.19992	hundredth	-0.27508
-4.19992	hung	-0.27319
-3.89889	hurried	-0.27096
-3.89889	husband	-0.27040
-4.19992	husband's	-0.27549
-4.19992	hymns	-0.24755
-3.89889	hypocritical	-0.27558
-2.63172	i	-0.29249
-3.89889	i'll	-0.27363
-3.59786	i'm	-0.40017
-4.19992	idea	-0.27555
-4.19992	ideal	-0.24866
-3.89889	ideas	-0.25529
-3.89889	identical	-0.57643
-4.19992	identifies	-0.27193
-4.19992	identify	-0.27377
-3.89889	identity	-0.25444
-4.19992	idleness	-0.26493
-2.68141	if	-0.59859
-4.19992	ignite	-0.24755
-4.19992	illusion	-0.26493
-4.19992	illustrate	-0.27485
-3.89889	illustrated	-0.27363
-4.19992	illustrates	-0.24755
-4.19992	illustrative	-0.25971
-3.89889	image	-0.23054
-3.89889	images	-0.24739
-4.19992	imagination	-0.25971
-4.19992	imagines	-0.27526
-4.19992	imbedded	-0.27561
-4.19992	imbruing	-0.27152
-3.89889	immature	-0.27111
-3.59786	immediately	-0.39663
-4.19992	imperiled	-0.27485
-4.19992	implications	-0.24866
-4.19992	implies	-0.26430
-3.89889	imply	-0.27111
-4.19992	importance	-0.25971
-3.72280	important	-0.24416
-4.19992	importantly	-0.27269
-4.19992	imports	-0.27459
-4.19992	imposes	-0.26430
-4.19992	impressions	-0.25971
-4.19992	imprisonment	-0.27193
-4.19992	improve	-0.27549
-4.19992	improved	-0.27497
-3.50095	improvement	-0.27067
-3.89889	improvised	-0.26128
-4.19992	imputation	-0.25971
-3.24568	in	-0.28044
-4.19992	inaction	-0.27543
-4.19992	inactive	-0.24866
-4.19992	inborn	-0.24866
-3.89889	inc.	-0.25968
-4.19992	incident	-0.27520
-4.19992	incidentally	-0.27415
-4.19992	includes	-0.27558
-3.89889	including	-0.27453
-4.19992	income	-0.27453
-3.59786	increase	-0.36077
-3.72280	indeed	-0.42165
-3.89889	indenture	-0.26757
-3.50095	independence	-0.27078
-3.29683	independent	-0.35393
-4.19992	index	-0.25971
-4.19992	indicate	-0.27149
-4.19992	indicates	-0.27330
-4.19992	indications	-0.27398
-4.19992	indictment	-0.25971
-4.19992	indispensable	-0.27561
-3.72280	individual	-0.27365
-4.19992	individualizing	-0.27555
-4.19992	individuals	-0.27505
-4.19992	industrial	-0.26493
-3.50095	industry	-0.33702
-4.19992	inert	-0.27532
-4.19992	inevitably	-0.27287
-4.19992	inexpensive	-0.27555
-3.89889	infield	-0.27520
-4.19992	infinitely	-0.27534
-3.89889	influence	-0.54969
-3.89889	information	-0.27540
-4.19992	informed	-0.24866
-4.19992	ingenuity	-0.27450
-4.19992	ingratitoode	-0.26493
-4.19992	inheritance	-0.27537
-4.19992	injured	-0.27552
-4.19992	injury	-0.27552
-4.19992	inner	-0.27561
-4.19992	innocence	-0.26493
-4.19992	inquiries	-0.26493
-4.19992	inquisition	-0.25971
-3.89889	inscrutable	-0.27558
-4.19992	inside	-0.24755
-4.19992	insincere	-0.24866
-4.19992	insist	-0.27319
-4.19992	insistence	-0.27055
-4.19992	inspired	-0.26493
-4.19992	inspiring	-0.26493
-3.59786	instance	-0.27485
-4.19992	instances	-0.26430
-4.19992	instead	-0.25971
-4.19992	instinctively	-0.27149
-3.89889	institutions	-0.27190
-3.89889	instructed	-0.24749
-3.72280	instruction	-0.27058
-4.19992	instructions	-0.27377
-4.19992	integer	-0.27377
-4.19992	intelligence	-0.24866
-4.19992	intelligently	-0.26493
-4.19992	intensely	-0.27558
-4.19992	intensify	-0.27433
-4.19992	intent	-0.25971
-4.19992	inter-american	-0.27552
-3.59786	interama	-0.26716
-3.42177	interest	-0.31229
-3.59786	interested	-0.34315
-4.19992	interesting	-0.27415
-4.19992	interrelationships	-0.26493
-4.19992	interviewed	-0.24866
-2.75276	into	-0.57392
-4.19992	introduce	-0.27444
-3.89889	introduced	-0.27211
-4.19992	introduction	-0.27164
-4.19992	invented	-0.24755
-3.50095	investment	-0.49690
-3.89889	investors	-0.27453
-4.19992	invite	-0.27558
-4.19992	invited	-0.27558
-4.19992	involved	-0.27479
-4.19992	iron	-0.27552
-4.19992	ironic	-0.27558
-4.19992	ironically	-0.27558
-1.95937	is	-0.41574
-4.19992	islandia	-0.26430
-4.19992	islands	-0.27149
-3.50095	isn't	-0.24733
-4.19992	isodine	-0.27561
-3.50095	issue	-0.36808
-3.89889	issues	-0.24425
-2.17873	it	-0.45386
-3.50095	it's	-0.33034
-4.19992	italian	-0.27561
-2.75276	its	-0.32033
-4.19992	itself	-0.27152
-4.19992	j.	-0.27555
-4.19992	jacksonville	-0.26493
-4.19992	jacobean	-0.27537
-3.89889	jacopo	-0.57658
-3.89889	jaggers	-0.27558
-3.89889	jaggers'	-0.27558
-3.89889	james	-0.27555
-4.19992	jammed	-0.27257
-3.59786	jane	-0.27208
-4.19992	janice	-0.27561
-4.19992	january	-0.24755
-3.72280	jeff	-0.45138
-3.89889	jefferson	-0.27322
-4.19992	jesuits	-0.27149
-3.59786	jesus	-0.24606
-4.19992	jesus'	-0.27561
-4.19992	jesus's	-0.27532
-4.19992	jew	-0.24866
-3.89889	jewish	-0.27537
-3.89889	jews	-0.27479
-4.19992	jim	-0.27558
-3.89889	job	-0.26896
-3.89889	jobs	-0.27313
-3.59786	joe	-0.26961
-3.89889	joe's	-0.27406
-3.72280	john	-0.27549
-4.19992	johnny	-0.27561
-3.59786	join	-0.84961
-4.19992	joined	-0.24755
-3.89889	joiner	-0.27511
-4.19992	joiners	-0.26430
-3.72280	joining	-0.24699
-4.19992	joint	-0.27555
-3.89889	joseph	-0.56074
-3.89889	journey	-0.24441
-4.19992	joy	-0.27497
-4.19992	joys	-0.27149
-4.19992	jumped	-0.27558
-4.19992	june	-0.27558
-4.19992	juniors	-0.26493
-2.99580	just	-0.33782
-3.59786	justice	-0.53829
-4.19992	kaminsky	-0.25971
-4.19992	katanga	-0.27561
-4.19992	katangan	-0.27561
-3.89889	keep	-0.27465
-4.19992	keeping	-0.24755
-4.19992	kennedy	-0.27558
-3.89889	kept	-0.27281
-4.19992	kestner	-0.26493
-3.72280	key	-0.26460
-4.19992	kid	-0.26430
-4.19992	killed	-0.27386
-3.35482	kind	-0.59509
-4.19992	kinds	-0.27476
-4.19992	kingdom	-0.24866
-4.19992	kiss	-0.27433
-4.19992	kisses	-0.27257
-4.19992	kitchen	-0.27532
-4.19992	kneels	-0.27561
-4.19992	knees	-0.26493
-3.72280	knew	-0.27131
-3.72280	knife	-0.23716
-4.19992	knitting	-0.27149
-4.19992	knock	-0.27468
-3.19992	know	-0.35268
-3.42177	known	-0.32371
-3.72280	knows	-0.44646
-4.19992	konrad	-0.27558
-4.19992	label	-0.25971
-4.19992	labeled	-0.27523
-3.89889	labels	-0.27081
-4.19992	laboratory	-0.27137
-4.19992	laborers	-0.27395
-4.19992	lacerations	-0.27319
-3.89889	lack	-0.24795
-4.19992	ladder	-0.24866
-4.19992	lady	-0.27561
-4.19992	lady's	-0.27532
-3.89889	laid	-0.27281
-4.19992	lamentation	-0.27561
-3.29683	land	-0.28889
-4.19992	lane	-0.24866
-4.19992	language	-0.26493
-3.59786	lap	-0.24391
-3.59786	large	-0.40043
-4.19992	largely	-0.27552
-2.92117	last	-0.55270
-3.59786	late	-0.23151
-3.89889	lately	-0.26487
-3.24568	later	-0.28927
-4.19992	latter	-0.27055
-4.19992	latter's	-0.27561
-4.19992	laundry	-0.27549
-3.59786	law	-0.25872
-4.19992	lawmakers	-0.27561
-3.24568	lawrence	-0.23834
-4.19992	laws	-0.27234
-4.19992	lawyer	-0.27459
-3.42177	lay	-0.34799
-4.19992	laying	-0.27152
-4.19992	layman	-0.27561
-3.89889	lays	-0.27225
-3.89889	lead	-0.24752
-3.72280	leaders	-0.27017
-3.89889	leadership	-0.25950
-4.19992	leaflet	-0.27479
-3.72280	league	-0.27234
-4.19992	lean	-0.27234
-3.72280	learn	-0.26860
-3.72280	learned	-0.27178
-4.19992	learning	-0.27549
-4.19992	learns	-0.24755
-3.42177	least	-0.26671
-3.59786	leave	-0.35487
-4.19992	leave-taking	-0.25971
-4.19992	leaving	-0.26430
-3.72280	led	-0.24127
-3.42177	left	-0.33614
-4.19992	legislative	-0.27532
-4.19992	legislature	-0.27561
-4.19992	legs	-0.26493
-4.19992	leitmotif	-0.25971
-4.19992	lengthy	-0.27395
-3.59786	less	-0.24773
-3.50095	let	-0.46682
-3.59786	letter	-0.21412
-4.19992	letters	-0.27401
-4.19992	letting	-0.27561
-3.89889	levels	-0.24780
-4.19992	liberal	-0.27555
-3.89889	library	-0.24553
-4.19992	licensed	-0.27555
-3.89889	lie	-0.27514
-3.12074	life	-0.34928
-4.19992	life-size	-0.27549
-4.19992	lift	-0.27540
-4.19992	light	-0.27386
-4.19992	lighted	-0.27561
-4.19992	lightweight	-0.27555
-2.92117	like	-0.29904
-4.19992	likelihood	-0.27450
-3.72280	likely	-0.27333
-4.19992	liking	-0.27537
-4.19992	limb	-0.26493
-4.19992	limited	-0.27561
-3.72280	line	-0.43578
-3.89889	linen	-0.26484
-3.89889	lines	-0.23170
-4.19992	linking	-0.25971
-4.19992	lint	-0.27558
-4.19992	lip	-0.27523
-4.19992	lippi	-0.24866
-4.19992	liquor	-0.27377
-3.89889	list	-0.26893
-4.19992	listed	-0.27269
-3.89889	literature	-0.27365
-3.89889	litters	-0.56074
-3.05379	little	-0.27229
-3.89889	live	-0.27190
-3.72280	lives	-0.41268
-3.72280	living	-0.27520
-4.19992	lloyd	-0.27561
-3.89889	load	-0.21871
-3.24568	local	-0.44986
-3.72280	located	-0.27108
-4.19992	logical	-0.27508
-4.19992	loins	-0.27555
-3.72280	london	-0.27140
-3.35482	long	-0.27225
-4.19992	long-awaited	-0.27558
-3.24568	look	-0.28086
-3.59786	looked	-0.24537
-3.50095	looking	-0.36664
-3.72280	looks	-0.27181
-4.19992	loopholes	-0.24755
-4.19992	loosen	-0.27476
-4.19992	lorelei	-0.26493
-4.19992	lose	-0.24755
-3.89889	losing	-0.27459
-4.19992	loss	-0.25971
-3.89889	lost	-0.27146
-3.50095	lot	-0.35527
-4.19992	lots	-0.27149
-3.50095	love	-0.32832
-4.19992	loves	-0.24755
-4.19992	low-down	-0.24866
-4.19992	lowering	-0.27152
-4.19992	loyal	-0.26493
-4.19992	loyalty	-0.27164
-4.19992	lubbock	-0.24866
-4.19992	luck	-0.27549
-4.19992	lucky	-0.27526
-4.19992	ludwig	-0.27555
-4.19992	lumber	-0.24866
-4.19992	luminous	-0.27561
-4.19992	lummus	-0.27534
-4.19992	lunged	-0.27330
-4.19992	lure	-0.25971
-4.19992	luxury	-0.25971
-4.19992	macbeth	-0.27386
-4.19992	machinegun	-0.27561
-3.35482	machinery	-0.37927
-3.15853	made	-0.25218
-4.19992	madonna	-0.24866
-4.19992	madonna's	-0.27558
-4.19992	maestro	-0.27561
-4.19992	magdalene	-0.27555
-4.19992	magic	-0.27552
-4.19992	magnetisms	-0.24866
-4.19992	magnificent	-0.27555
-4.19992	magnificently	-0.27561
-3.89889	magwitch	-0.27450
-3.59786	magwitch's	-0.27485
-4.19992	maintain	-0.27555
-3.50095	major	-0.27403
-4.19992	majority	-0.27257
-2.89889	make	-0.31817
-3.89889	maker	-0.25968
-4.19992	makers	-0.27561
-3.42177	makes	-0.33880
-3.35482	making	-0.23452
-3.05379	man	-0.30724
-4.19992	management	-0.27444
-3.72280	manager	-0.26385
-3.50095	managers	-0.25899
-4.19992	managing	-0.27561
-4.19992	mankind	-0.24866
-3.89889	manner	-0.24860
-4.19992	mannerism	-0.27552
-4.19992	mannerisms	-0.27444
-4.19992	manual	-0.27540
-4.19992	manufacturer	-0.27055
-3.72280	manufacturing	-0.25953
-2.87770	many	-0.36434
-3.89889	marble	-0.24860
-3.35482	march	-0.26778
-3.89889	marine	-0.27558
-4.19992	mark	-0.27543
-4.19992	marked	-0.27401
-3.29683	market	-0.29952
-4.19992	marketing	-0.26493
-4.19992	marks	-0.25971
-3.50095	marksman	-0.27292
-4.19992	marksman's	-0.27561
-3.89889	marksmanship	-0.57632
-3.89889	married	-0.26335
-4.19992	marrow	-0.25971
-4.19992	marshes	-0.24866
-4.19992	marv	-0.27558
-3.08598	mary	-0.30177
-3.89889	mary's	-0.27505
-3.89889	master	-0.26490
-4.19992	masterpiece	-0.24866
-4.19992	matches	-0.24755
-3.72280	material	-0.27260
-4.19992	materialism	-0.27561
-4.19992	mathematical	-0.27543
-4.19992	mathematically	-0.27415
-4.19992	matter	-0.25971
-2.73752	may	-0.27304
-4.19992	maybe	-0.27479
-4.19992	mayor	-0.27549
-4.19992	mclauchlin	-0.25971
-2.92117	me	-0.26162
-4.19992	meal	-0.24866
-3.50095	mean	-0.31373
-3.72280	meaning	-0.43496
-4.19992	meaningful	-0.26493
-3.29683	means	-0.30430
-4.19992	meant	-0.27561
-4.19992	measure	-0.25971
-4.19992	meat	-0.27453
-4.19992	medal	-0.27137
-4.19992	medals	-0.27517
-3.72280	meet	-0.27284
-4.19992	meeting	-0.27517
-4.19992	melancholy	-0.27497
-3.59786	melzi	-0.27213
-3.35482	member	-0.28133
-2.72280	members	-0.30310
-2.72280	membership	-0.39603
-4.19992	memorized	-0.24866
-3.89889	memory	-0.25950
-3.24568	men	-0.28471
-4.19992	men's	-0.27537
-4.19992	mending	-0.24866
-4.19992	mentally	-0.27552
-4.19992	mentioned	-0.24866
-4.19992	mere	-0.27561
-3.89889	merely	-0.27482
-4.19992	merger	-0.24866
-4.19992	mergers	-0.27193
-4.19992	merits	-0.27558
-4.19992	merry	-0.27546
-4.19992	mess	-0.26493
-4.19992	metaphor	-0.27137
-4.19992	meticulously	-0.27561
-4.19992	metro	-0.27561
-3.59786	miami	-0.24842
-3.89889	miami's	-0.27558
-3.42177	mice	-0.26457
-3.02383	michelangelo	-0.29268
-4.19992	michelangelo's	-0.27561
-3.89889	mickie	-0.27363
-4.19992	mid-thirties	-0.24866
-4.19992	mid-week	-0.27523
-4.19992	middle	-0.25971
-3.02383	might	-0.36421
-4.19992	mike	-0.27561
-4.19992	miles	-0.27482
-4.19992	military	-0.27520
-3.72280	mill	-0.45132
-4.19992	miller's	-0.27555
-3.72280	million	-0.26881
-4.19992	millions	-0.25971
-4.19992	milton	-0.26493
-3.50095	mind	-0.22224
-4.19992	mingled	-0.27561
-3.89889	minimum	-0.56074
-4.19992	mining	-0.27558
-4.19992	minors	-0.27505
-4.19992	mint	-0.24866
-4.19992	minute	-0.27330
-4.19992	minutes	-0.27514
-3.42177	miss	-0.42348
-3.89889	missed	-0.24668
-4.19992	mission	-0.25971
-4.19992	missions	-0.27561
-3.89889	mitchell	-0.27526
-3.89889	mixture	-0.56074
-3.35482	model	-0.24256
-3.59786	models	-0.24603
-3.89889	modern	-0.27540
-4.19992	moise	-0.27561
-4.19992	molly's	-0.24755
-3.29683	moment	-0.34063
-3.72280	momentous	-0.27526
-4.19992	moments	-0.25971
-3.59786	money	-0.26131
-4.19992	monk	-0.27534
-3.59786	months	-0.23122
-3.89889	monument	-0.57267
-4.19992	moon-faced	-0.27561
-4.19992	moonan	-0.27497
-4.19992	moore	-0.26493
-3.89889	moral	-0.26490
-2.75276	more	-0.41997
-4.19992	morning	-0.27330
-4.19992	mortgage	-0.27552
-3.35482	morton	-0.51467
-4.19992	mosk	-0.25971
-4.19992	moss	-0.27555
-3.08598	most	-0.25811
-4.19992	mostly	-0.24755
-3.24568	mother	-0.26076
-3.89889	mother's	-0.27549
-4.19992	mothers	-0.27193
-4.19992	motion	-0.27555
-4.19992	motivate	-0.27468
-4.19992	motor	-0.27549
-4.19992	mountain	-0.27558
-3.89889	mountains	-0.23726
-4.19992	mourn	-0.24866
-4.19992	mourners	-0.27514
-3.72280	mouse	-0.24671
-3.50095	move	-0.36922
-3.72280	moved	-0.24826
-4.19992	movement	-0.24866
-4.19992	movements	-0.27561
-4.19992	moves	-0.24755
-4.19992	moving	-0.27558
-3.24568	mr.	-0.38446
-3.42177	mrs.	-0.57640
-3.24568	much	-0.31035
-3.89889	mud	-0.24863
-4.19992	multiplying	-0.27537
-4.19992	murder	-0.27561
-4.19992	murderous	-0.27502
-4.19992	murray	-0.27534
-3.89889	museum	-0.24838
-4.19992	musicians	-0.27552
-2.96947	must	-0.31449
-3.24568	my	-0.32536
-3.89889	myrrh	-0.56596
-4.19992	myself	-0.27456
-4.19992	mysterious	-0.27549
-4.19992	mystery-story	-0.27558
-3.42177	n	-0.30675
-4.19992	n-trial	-0.27470
-4.19992	n.	-0.27561
-4.19992	nailed	-0.27468
-4.19992	naive	-0.27561
-3.59786	name	-0.26421
-4.19992	names	-0.27149
-4.19992	nancy	-0.27561
-4.19992	narrative	-0.24866
-4.19992	narrow	-0.26493
-4.19992	narrowly	-0.24866
-3.50095	nation	-0.22909
-4.19992	nation's	-0.27558
-3.50095	national	-0.27511
-3.59786	nations	-0.23170
-3.50095	natural	-0.26278
-4.19992	naturalistic	-0.27543
-3.89889	naturally	-0.27187
-4.19992	naturalness	-0.27561
-3.89889	nature	-0.27222
-4.19992	navy	-0.24866
-4.19992	ndola	-0.27561
-4.19992	neal	-0.27561
-3.72280	near	-0.42361
-3.72280	nearly	-0.27529
-4.19992	necessary	-0.27137
-4.19992	neck	-0.25971
-3.42177	need	-0.27243
-4.19992	needed	-0.26430
-4.19992	needs	-0.24866
-3.89889	neglect	-0.26469
-3.89889	neglected	-0.26487
-4.19992	negotiating	-0.27193
-4.19992	negotiations	-0.24866
-3.89889	negro	-0.27435
-3.89889	nemesis	-0.25778
-4.19992	nervous	-0.27526
-4.19992	nest	-0.26430
-3.72280	net	-0.27441
-3.89889	nevada	-0.26409
-3.19992	never	-0.27488
-4.19992	never-to-be-forgotten	-0.27534
-4.19992	nevertheless	-0.27055
-2.64362	new	-0.82981
-3.89889	newest	-0.27555
-4.19992	newly	-0.27561
-4.19992	news	-0.27523
-4.19992	newspapers	-0.27435
-3.42177	next	-0.34536
-3.89889	nicodemus	-0.24515
-3.42177	night	-0.28950
-4.19992	nights	-0.24866
-4.19992	nigras	-0.27555
-3.89889	nine	-0.27470
-2.87770	no	-0.29012
-4.19992	nodded	-0.27193
-4.19992	non-success	-0.27543
-4.19992	nonchalant	-0.27319
-3.89889	none	-0.27494
-3.72280	normal	-0.27511
-4.19992	normally	-0.27505
-3.59786	north	-0.27254
-4.19992	northern	-0.27561
-4.19992	nose	-0.24866
-4.19992	nostalgically	-0.27546
-2.37384	not	-0.22522
-4.19992	not-a	-0.24866
-3.89889	not-ace	-0.24848
-4.19992	notation	-0.27558
-4.19992	notch	-0.24866
-3.59786	note	-0.39236
-3.35482	nothing	-0.21227
-4.19992	notice	-0.27456
-4.19992	noticing	-0.27377
-3.42177	novel	-0.24269
-4.19992	novels	-0.27468
-3.24568	now	-0.26071
-4.19992	nuclear	-0.27549
-4.19992	nude	-0.27234
-2.92117	number	-0.90614
-3.59786	numbers	-0.86177
-4.19992	nuns	-0.27193
-4.19992	nursery	-0.27552
-3.89889	object	-0.26748
-4.19992	objecting	-0.27164
-4.19992	objections	-0.27164
-3.72280	objects	-0.23404
-4.19992	observed	-0.24755
-4.19992	obsession	-0.24866
-3.72280	obviously	-0.27251
-4.19992	occupied	-0.26430
-4.19992	occur	-0.27164
-3.89889	occurrence	-0.25908
-4.19992	occurs	-0.27377
-1.46914	of	-0.41481
-3.29683	off	-0.23347
-4.19992	offensive	-0.27558
-4.19992	offensively	-0.24866
-3.89889	offer	-0.24860
-4.19992	offering	-0.24866
-3.89889	office	-0.27456
-4.19992	officers'	-0.27561
-4.19992	offices	-0.26493
-4.19992	officials	-0.27389
-4.19992	offshore	-0.27561
-3.35482	often	-0.27231
-3.89889	oil	-0.57658
-3.19992	old	-0.31862
-3.72280	older	-0.27222
-2.27564	on	-0.65808
-3.59786	once	-0.27175
-2.49235	one	-0.38001
-4.19992	one-third	-0.25971
-3.59786	ones	-0.26424
-2.87770	only	-0.29126
-4.19992	onslaughts	-0.25971
-3.42177	open	-0.32521
-4.19992	open-meeting	-0.27558
-4.19992	opened	-0.27546
-4.19992	opening	-0.27476
-3.89889	openly	-0.23726
-4.19992	opens	-0.27193
-4.19992	operation	-0.27561
-3.42177	operations	-0.32533
-4.19992	opportunities	-0.24755
-3.72280	opportunity	-0.44723
-3.89889	opposition	-0.25787
-4.19992	optimism	-0.27456
-4.19992	optimistic	-0.27149
-2.41459	or	-0.24906
-3.72280	order	-0.26630
-4.19992	ordered	-0.27149
-4.19992	ordering	-0.27514
-4.19992	organically	-0.27558
-3.89889	organization	-0.27540
-3.72280	organizations	-0.24755
-3.89889	oriental	-0.57658
-4.19992	originated	-0.27502
-3.72280	orioles	-0.27275
-3.89889	orlick	-0.27517
-3.89889	orlick's	-0.27558
-2.92117	other	-0.22701
-3.35482	others	-0.26852
-4.19992	ottermole	-0.27552
-3.29683	our	-0.33249
-4.19992	ours	-0.24866
-2.76856	out	-0.38883
-4.19992	outbreaks	-0.27561
-3.59786	outcome	-0.38296
-3.35482	outcomes	-0.39720
-4.19992	outfit	-0.26493
-4.19992	outgrow	-0.27485
-4.19992	outline	-0.27555
-4.19992	outlined	-0.27555
-4.19992	outlining	-0.24755
-4.19992	outset	-0.27149
-4.19992	outside	-0.25971
-4.19992	outstanding	-0.27561
-2.83819	over	-0.47293
-4.19992	over-all	-0.27561
-4.19992	over-hand	-0.27395
-4.19992	over-stitched	-0.27561
-4.19992	over-the-counter	-0.27558
-4.19992	overcome	-0.27468
-4.19992	overflowing	-0.27193
-4.19992	overhead	-0.27534
-4.19992	overt	-0.27540
-4.19992	owens	-0.27549
-3.15853	own	-0.24659
-3.89889	owners	-0.25839
-3.24568	p	-0.36049
-4.19992	p.m.	-0.27561
-4.19992	packet	-0.24866
-3.89889	page	-0.56074
-3.89889	paid	-0.26999
-4.19992	pain	-0.27234
-3.89889	painful	-0.27549
-4.19992	painless	-0.27149
-4.19992	painstaking	-0.27561
-4.19992	paint	-0.27269
-3.89889	painting	-0.24565
-3.59786	pair	-0.56035
-4.19992	paired	-0.27193
-4.19992	pairs	-0.27502
-4.19992	pan	-0.25971
-3.89889	panels	-0.27456
-3.89889	panic	-0.26881
-3.72280	paper	-0.42286
-4.19992	paragraphs	-0.24866
-4.19992	paralysis	-0.27386
-3.89889	parents	-0.24568
-4.19992	parliament	-0.26493
-3.89889	parlor	-0.27140
-4.19992	parody	-0.25971
-3.42177	part	-0.52850
-4.19992	participant	-0.24866
-3.89889	participating	-0.27494
-3.89889	participation	-0.23612
-3.89889	particular	-0.27023
-3.72280	particularly	-0.27433
-4.19992	partner	-0.27561
-3.89889	parts	-0.25956
-3.59786	party	-0.38278
-4.19992	paschall	-0.25971
-4.19992	pass	-0.27164
-3.59786	passing	-0.24649
-4.19992	passionate	-0.27561
-4.19992	passive	-0.27152
-3.59786	past	-0.26937
-3.59786	pastor	-0.26427
-4.19992	pastoral	-0.27552
-3.59786	pastors	-0.26272
-4.19992	patiently	-0.27149
-4.19992	patricia	-0.27558
-3.89889	patrol	-0.26427
-4.19992	patroness	-0.27459
-4.19992	patrons	-0.27459
-3.59786	pattern	-0.56071
-4.19992	patterns	-0.27543
-4.19992	paulah	-0.27561
-4.19992	pauses	-0.27561
-3.50095	peace	-0.33185
-4.19992	peering	-0.27330
-3.72280	pennant	-0.23713
-4.19992	pennies	-0.27526
-3.72280	pennsylvania	-0.27552
-4.19992	pentagon	-0.26493
-2.92117	people	-0.23505
-3.89889	people's	-0.27546
-3.15853	per	-1.31671
-4.19992	perfectly	-0.27561
-3.72280	performance	-0.25833
-3.59786	perhaps	-0.39731
-3.24568	period	-0.21735
-4.19992	permitted	-0.27555
-4.19992	perpetually	-0.27561
-3.72280	person	-0.24817
-4.19992	personal	-0.27552
-4.19992	personality	-0.27558
-4.19992	personally	-0.24755
-3.35482	persons	-0.25642
-4.19992	perspective	-0.24866
-4.19992	peter	-0.27561
-4.19992	phantasy	-0.25971
-4.19992	pharmacist	-0.24866
-4.19992	pharmical	-0.27561
-3.89889	phases	-0.56074
-4.19992	phenomena	-0.27395
-4.19992	phenomenon	-0.27540
-3.72280	physical	-0.45161
-4.19992	physicians	-0.27561
-4.19992	picked	-0.27476
-3.89889	picking	-0.27453
-4.19992	pickup	-0.27561
-3.42177	picture	-0.42308
-3.72280	pictures	-0.27322
-4.19992	pie	-0.27137
-3.42177	piece	-1.03787
-4.19992	pies	-0.24866
-3.89889	pieta	-0.27257
-4.19992	pigeon	-0.27552
-4.19992	pigeons	-0.24866
-4.19992	pilate's	-0.27558
-4.19992	pinched	-0.27561
-4.19992	pineapple	-0.27234
-4.19992	pink	-0.27561
-2.96947	pip	-0.23430
-3.12074	pip's	-0.27342
-4.19992	piping	-0.27549
-4.19992	pitcher	-0.24866
-3.89889	pitching	-0.27049
-3.59786	place	-0.38332
-4.19992	placed	-0.27319
-4.19992	placid	-0.27552
-4.19992	plague	-0.24755
-4.19992	plainly	-0.27546
-3.59786	plan	-0.24337
-3.72280	plane	-0.27284
-3.72280	planned	-0.44069
-4.19992	planning	-0.27137
-3.72280	plans	-0.26032
-4.19992	plant	-0.27401
-4.19992	plastically	-0.27555
-4.19992	plates	-0.27561
-4.19992	platoons	-0.27319
-3.89889	played	-0.27403
-4.19992	plays	-0.27537
-3.89889	pleasant	-0.27555
-4.19992	pleased	-0.27193
-3.89889	pledge	-0.25965
-4.19992	pledges	-0.27561
-3.89889	plot	-0.25331
-3.89889	plug	-0.24693
-4.19992	plus	-0.27287
-4.19992	po	-0.27561
-3.59786	pocket	-0.39502
-4.19992	pocket's	-0.27561
-4.19992	pockets	-0.26493
-4.19992	poignant	-0.27540
-3.35482	point	-0.46995
-4.19992	pointer	-0.27561
-3.89889	points	-0.23659
-4.19992	policeman-murderer	-0.27558
-4.19992	policies	-0.27371
-4.19992	politic	-0.24866
-4.19992	political	-0.27552
-4.19992	politically	-0.27354
-4.19992	politicians	-0.26493
-4.19992	politics	-0.24866
-4.19992	pontius	-0.27561
-4.19992	poor	-0.26493
-4.19992	popular	-0.27561
-3.42177	population	-0.55535
-4.19992	pork	-0.27561
-4.19992	port	-0.27552
-4.19992	portable	-0.27555
-3.89889	possession	-0.25541
-3.24568	possible	-0.34742
-4.19992	possibly	-0.27540
-4.19992	postponed	-0.27537
-3.50095	potato	-0.97446
-4.19992	pots	-0.27561
-4.19992	potter	-0.27558
-4.19992	pound	-0.27319
-4.19992	pounds'	-0.27561
-3.89889	poverty	-0.26490
-4.19992	power	-0.25971
-4.19992	pp.	-0.27561
-3.72280	practical	-0.27497
-4.19992	practically	-0.24755
-3.59786	practice	-0.34362
-4.19992	prattville	-0.27558
-3.89889	prayer	-0.24854
-4.19992	preamble	-0.27164
-4.19992	precariously	-0.24866
-4.19992	precipitating	-0.24755
-4.19992	precisely	-0.26493
-4.19992	predicting	-0.27149
-4.19992	prefer	-0.27354
-4.19992	preference	-0.27164
-4.19992	prelude	-0.27164
-4.19992	premium	-0.27558
-3.24568	preparation	-0.48446
-4.19992	preparation-inquirers'	-0.27549
-4.19992	preparatory	-0.27552
-4.19992	prepare	-0.26430
-4.19992	prepared	-0.27137
-3.50095	present	-0.46788
-3.89889	presented	-0.26478
-3.24568	president	-0.29450
-4.19992	president's	-0.27534
-4.19992	pressure	-0.27561
-4.19992	pretty	-0.27552
-4.19992	previous	-0.27561
-3.72280	price	-0.25593
-3.89889	price-earnings	-0.26490
-3.89889	priced	-0.27034
-3.89889	principal	-0.27555
-4.19992	principle	-0.27055
-4.19992	principles	-0.27401
-3.89889	prior	-0.27152
-4.19992	prison	-0.27137
-4.19992	prize	-0.24866
-3.29683	probabilities	-0.46238
-3.02383	probability	-0.52259
-3.72280	probably	-0.27435
-3.29683	problem	-0.31419
-3.50095	problems	-0.32340
-4.19992	procedure	-0.27055
-4.19992	proceed	-0.27561
-3.50095	process	-0.62964
-3.89889	processing	-0.57637
-3.59786	produce	-0.26284
-4.19992	produces	-0.27549
-3.89889	producing	-0.26296
-3.89889	production	-0.24863
-3.15853	program	-0.47437
-3.89889	progress	-0.27505
-4.19992	progressed	-0.26430
-3.72280	project	-0.42460
-4.19992	projects	-0.25971
-3.89889	prominent	-0.24733
-4.19992	promise	-0.27444
-4.19992	prompt	-0.27561
-4.19992	promptly	-0.27561
-4.19992	propel	-0.24755
-4.19992	proper	-0.27543
-3.72280	properties	-0.24384
-3.72280	property	-0.26409
-3.89889	proportion	-0.27505
-4.19992	proposal	-0.27561
-3.89889	proposals	-0.27546
-4.19992	prosecuting	-0.27561
-4.19992	prospects	-0.26493
-4.19992	prosperity	-0.27514
-4.19992	prosperous	-0.27540
-4.19992	protect	-0.24755
-4.19992	protected	-0.24866
-4.19992	protection	-0.27055
-3.89889	proved	-0.27246
-3.72280	provide	-0.44036
-4.19992	provided	-0.27558
-4.19992	providence	-0.26493
-3.89889	provides	-0.26379
-3.89889	providing	-0.27468
-4.19992	province	-0.27517
-4.19992	proximity	-0.25971
-4.19992	psychiatrist	-0.27537
-3.89889	psychological	-0.27555
-4.19992	psychologically	-0.24755
-3.02383	public	-0.30737
-3.72280	publicly	-0.27430
-3.59786	pull	-0.21609
-4.19992	pumblechook	-0.27269
-3.89889	pumblechook's	-0.27465
-4.19992	pumping	-0.27529
-4.19992	punished	-0.24866
-3.89889	punishment	-0.24817
-4.19992	pupil	-0.24866
-3.89889	purple	-0.27543
-4.19992	purport	-0.27561
-3.89889	purposes	-0.26852
-3.72280	pursuit	-0.25529
-4.19992	pushes	-0.26493
-3.35482	put	-0.38762
-4.19992	puts	-0.27433
-4.19992	putting	-0.27152
-4.19992	q	-0.26493
-3.89889	qualify	-0.26840
-3.89889	quality	-0.26382
-4.19992	quarreling	-0.27497
-4.19992	quart	-0.25971
-3.42177	quarter	-0.21652
-4.19992	quarter-to-quarter	-0.27561
-3.42177	question	-0.24406
-3.42177	questions	-0.24934
-4.19992	quill	-0.27558
-3.50095	quite	-0.26415
-3.89889	quoted	-0.27520
-4.19992	r.	-0.27561
-3.29683	rabbi	-0.42227
-4.19992	race	-0.27558
-4.19992	raised	-0.27552
-4.19992	rampage	-0.27055
-3.15853	random	-0.68759
-4.19992	ranks	-0.25971
-4.19992	rare	-0.27520
-3.72280	rather	-0.75194
-4.19992	rationalizations	-0.24866
-4.19992	ratios	-0.24866
-4.19992	raymond	-0.27561
-4.19992	reach	-0.26430
-3.89889	reached	-0.24724
-4.19992	reaches	-0.24755
-3.89889	reaching	-0.27555
-4.19992	reaction	-0.25971
-3.89889	read	-0.24556
-3.89889	reading	-0.27339
-4.19992	readings	-0.27444
-3.89889	ready	-0.26763
-4.19992	reaffirmed	-0.27482
-3.50095	real	-0.24792
-4.19992	reality	-0.27269
-3.59786	realize	-0.37986
-4.19992	realizing	-0.27149
-3.72280	really	-0.27447
-4.19992	reams	-0.27540
-4.19992	reappearance	-0.27555
-4.19992	reappearing	-0.27517
-4.19992	rear	-0.27546
-3.59786	reason	-0.36118
-3.89889	reasons	-0.24724
-3.72280	receive	-0.26239
-3.59786	received	-0.37239
-4.19992	receiving	-0.27482
-3.50095	recent	-0.27534
-3.59786	recently	-0.27456
-3.42177	reception	-0.34870
-4.19992	receptive	-0.26493
-4.19992	recession	-0.27561
-4.19992	reclining	-0.27561
-4.19992	recognition	-0.26430
-4.19992	recommended	-0.27523
-4.19992	record	-0.27055
-4.19992	recordings	-0.26493
-4.19992	recovering	-0.27377
-4.19992	recur	-0.27502
-4.19992	recurring	-0.27561
-3.89889	red	-0.27543
-4.19992	redemption	-0.24866
-4.19992	reduce	-0.27152
-4.19992	reflecting	-0.27453
-4.19992	refreshment	-0.27537
-4.19992	refreshments	-0.24866
-4.19992	refugee	-0.27377
-4.19992	regarded	-0.27269
-4.19992	regardless	-0.25971
-4.19992	register	-0.24866
-4.19992	registrations	-0.25971
-4.19992	regrets	-0.27479
-3.89889	regularly	-0.27558
-4.19992	reintroduces	-0.27257
-4.19992	relate	-0.27164
-3.89889	relations	-0.27084
-4.19992	relationship	-0.27561
-4.19992	relative	-0.27561
-4.19992	relatively	-0.27555
-4.19992	relaxed	-0.27534
-4.19992	relief	-0.27561
-4.19992	religion	-0.27456
-4.19992	remain	-0.27398
-4.19992	remained	-0.27558
-4.19992	remaining	-0.27561
-3.59786	remains	-0.26400
-4.19992	remark	-0.27459
-4.19992	remarks	-0.24755
-4.19992	remembered	-0.27529
-4.19992	remembering	-0.27444
-4.19992	remove	-0.27433
-4.19992	rendezvous	-0.27330
-4.19992	renewal	-0.27558
-4.19992	renewed	-0.27546
-4.19992	renoir	-0.27558
-4.19992	repaired	-0.24866
-4.19992	repayable	-0.27377
-3.89889	repeated	-0.27479
-4.19992	repeatedly	-0.27453
-3.89889	repetitions	-0.56074
-4.19992	replied	-0.27561
-4.19992	report	-0.26493
-3.72280	reported	-0.44732
-4.19992	reporters	-0.27371
-3.89889	reports	-0.25717
-3.89889	represent	-0.27529
-4.19992	represents	-0.27529
-4.19992	reproaches	-0.27514
-3.89889	require	-0.27070
-4.19992	requires	-0.27540
-4.19992	requiring	-0.27502
-4.19992	reservations	-0.26493
-3.89889	reserved	-0.27128
-4.19992	residents	-0.27561
-4.19992	resistant	-0.27395
-4.19992	resolve	-0.24866
-3.89889	resolved	-0.24359
-4.19992	resource	-0.25971
-4.19992	respectability	-0.27456
-4.19992	respected	-0.27444
-4.19992	respectively	-0.24866
-3.72280	response	-0.22727
-4.19992	responsibility	-0.27558
-4.19992	rest	-0.27257
-4.19992	restless	-0.27561
-4.19992	restraint	-0.24866
-3.89889	restrict	-0.27462
-4.19992	rests	-0.27319
-3.42177	result	-0.41950
-4.19992	resulted	-0.27459
-3.89889	results	-0.27456
-4.19992	resurrected	-0.27070
-4.19992	retired	-0.24866
-4.19992	retirement	-0.27561
-4.19992	retribution	-0.24866
-4.19992	return	-0.27137
-3.89889	reunion	-0.26680
-3.89889	revealed	-0.24547
-3.72280	reveals	-0.27131
-4.19992	revenge	-0.26493
-4.19992	revenue	-0.24866
-4.19992	revered	-0.27561
-4.19992	review	-0.26493
-4.19992	rewrite	-0.27558
-4.19992	rhodesia	-0.27371
-4.19992	ribbon	-0.25971
-4.19992	richard's	-0.27520
-3.59786	richards	-0.23025
-4.19992	riddled	-0.27193
-4.19992	ridiculously	-0.27561
-3.12074	right	-0.26193
-3.89889	rights	-0.23170
-4.19992	rigorously	-0.27401
-4.19992	ripa	-0.24866
-4.19992	rises	-0.27450
-4.19992	ritual	-0.24755
-4.19992	rituals	-0.27149
-3.72280	river	-0.24857
-4.19992	robby	-0.27497
-4.19992	robby's	-0.27555
-4.19992	robed	-0.27555
-4.19992	robert	-0.27561
-4.19992	robes	-0.24866
-4.19992	robinson	-0.27055
-4.19992	rock-like	-0.27555
-4.19992	rolls	-0.27444
-3.89889	roman	-0.27543
-3.72280	romantic	-0.24309
-4.19992	romantics	-0.24866
-3.89889	rome	-0.54969
-4.19992	ron	-0.27558
-4.19992	ronald	-0.27561
-3.89889	ronnie	-0.27558
-4.19992	rookie	-0.27561
-4.19992	rookies	-0.27561
-3.12074	room	-0.34451
-4.19992	root	-0.24866
-4.19992	rosebuds	-0.27555
-3.89889	rough	-0.27540
-4.19992	roughened	-0.27401
-4.19992	roughly	-0.27549
-3.89889	round	-0.25968
-3.72280	rounds	-0.26209
-4.19992	row	-0.25971
-4.19992	rub	-0.27514
-4.19992	rubbing	-0.27152
-3.72280	rug	-0.21775
-4.19992	rule	-0.24866
-4.19992	ruling	-0.27485
-4.19992	run-up	-0.24866
-4.19992	run-ups	-0.27555
-3.89889	runs	-0.24835
-4.19992	rural	-0.27561
-4.19992	rylie	-0.25971
-4.19992	s.	-0.27561
-4.19992	sacramento	-0.27558
-3.89889	sacred	-0.57661
-4.19992	sadly	-0.27485
-3.15853	said	-0.26448
-4.19992	sake	-0.27529
-4.19992	salad	-0.27561
-4.19992	sale	-0.27561
-3.24568	sales	-0.29509
-4.19992	salesmanship	-0.24866
-4.19992	sam	-0.27561
-2.99580	same	-0.26481
-3.72280	sample	-0.25714
-4.19992	samuels	-0.27348
-3.89889	san	-0.27558
-4.19992	sanctuary	-0.27517
-3.89889	sand	-0.27543
-4.19992	sands	-0.27330
-4.19992	sangallo	-0.27558
-4.19992	sangallo's	-0.27561
-3.89889	santo	-0.57661
-3.72280	sat	-0.27409
-3.89889	satis	-0.57652
-4.19992	satisfactory	-0.24866
-4.19992	satterfield	-0.25971
-4.19992	saturday	-0.27558
-4.19992	sauterne	-0.27561
-4.19992	savage	-0.27561
-3.89889	saw	-0.27040
-3.89889	saws	-0.56596
-3.59786	say	-0.22339
-4.19992	saying	-0.27149
-3.72280	says	-0.24711
-4.19992	scandinavian	-0.27555
-4.19992	scarcely	-0.27534
-4.19992	scarred	-0.27561
-3.72280	scene	-0.22805
-4.19992	scent	-0.25971
-4.19992	scheduled	-0.27137
-4.19992	schedules	-0.27137
-3.89889	scheme	-0.27456
-3.59786	school	-0.24631
-3.89889	schools	-0.26376
-3.89889	score	-0.54858
-4.19992	scoured	-0.27193
-4.19992	scrap	-0.27561
-4.19992	scratches	-0.25971
-4.19992	scratchiness	-0.27561
-4.19992	scrub	-0.24755
-4.19992	scrutiny	-0.24755
-3.72280	sculpture	-0.24842
-4.19992	seagoville	-0.27348
-4.19992	search	-0.27269
-4.19992	searching	-0.27561
-3.89889	season	-0.23726
-4.19992	seasons	-0.24866
-3.89889	seat	-0.25968
-4.19992	seated	-0.27561
-4.19992	seats	-0.24755
-4.19992	secessionist	-0.27537
-3.24568	second	-0.29387
-4.19992	second-echelon	-0.27561
-3.72280	secret	-0.27392
-3.89889	secretary	-0.27222
-3.72280	section	-0.24400
-4.19992	secured	-0.27377
-4.19992	securely	-0.26493
-2.99580	see	-0.32823
-4.19992	seed	-0.27534
-3.72280	seeking	-0.27061
-4.19992	seeks	-0.27505
-3.72280	seem	-0.27476
-3.72280	seemed	-0.26215
-4.19992	seeming	-0.27561
-3.50095	seems	-0.27540
-4.19992	seen	-0.27561
-4.19992	segment	-0.25971
-4.19992	seldom	-0.27558
-4.19992	select	-0.27549
-4.19992	selecting	-0.27561
-4.19992	self	-0.24866
-4.19992	self-aggrandizement	-0.24866
-4.19992	self-destructive	-0.27269
-4.19992	self-pity	-0.27532
-4.19992	self-satisfaction	-0.27401
-3.89889	sell	-0.21871
-3.89889	selling	-0.27310
-4.19992	sells	-0.26430
-4.19992	senator	-0.27456
-4.19992	send	-0.27453
-4.19992	seniors	-0.27398
-4.19992	sense	-0.25971
-4.19992	senseless	-0.27070
-3.89889	sensitive	-0.27517
-4.19992	sensitivity	-0.24866
-3.72280	sent	-0.26236
-4.19992	sentry	-0.24866
-4.19992	separators	-0.26493
-3.59786	series	-0.86177
-4.19992	serious	-0.27444
-3.89889	sermon	-0.21871
-4.19992	serpent	-0.27193
-4.19992	servants	-0.24755
-3.50095	serve	-0.27164
-3.05379	service	-0.34532
-3.24568	session	-0.26369
-3.59786	sessions	-0.25760
-3.35482	set	-0.39943
-3.72280	sets	-0.73684
-4.19992	seven	-0.27534
-4.19992	seventh	-0.27546
-3.50095	several	-0.27465
-4.19992	sex	-0.27354
-4.19992	shakes	-0.27330
-4.19992	shaking	-0.27546
-3.72280	shall	-0.27328
-4.19992	shame	-0.27070
-4.19992	shape	-0.24866
-3.42177	share	-0.54268
-3.19992	shares	-0.35845
-4.19992	sharing	-0.27433
-4.19992	sharon	-0.27561
-4.19992	shay	-0.26493
-2.92117	she	-0.46283
-4.19992	sheer	-0.27558
-3.89889	sheet	-0.24777
-4.19992	sheets	-0.26493
-4.19992	shelves	-0.25971
-4.19992	sheraton-dallas	-0.27561
-3.89889	sherman	-0.24848
-4.19992	shift	-0.27152
-4.19992	ship	-0.27549
-4.19992	shock	-0.27561
-4.19992	shockwave	-0.27537
-4.19992	shoot	-0.27330
-3.89889	shooting	-0.24829
-4.19992	shop	-0.24866
-4.19992	shopkeepers	-0.24866
-4.19992	shopping	-0.27330
-3.89889	shops	-0.24640
-4.19992	short	-0.27561
-4.19992	shortened	-0.27164
-4.19992	shortest	-0.25971
-4.19992	shorthand	-0.27137
-4.19992	shot	-0.27330
-3.42177	shots	-0.26594
-2.96947	should	-0.25454
-4.19992	shouldn't	-0.27549
-4.19992	shouts	-0.27561
-3.50095	show	-0.26931
-4.19992	showed	-0.27552
-3.89889	shows	-0.57252
-4.19992	shrewish	-0.27561
-4.19992	shrinks	-0.27377
-4.19992	side	-0.27561
-4.19992	sidewalk	-0.27193
-4.19992	sign	-0.27561
-4.19992	signalizes	-0.27152
-4.19992	signature	-0.27055
-4.19992	significance	-0.25971
-4.19992	significant	-0.24866
-4.19992	signs	-0.25971
-4.19992	silent	-0.27552
-4.19992	silk	-0.27543
-3.89889	similar	-0.27555
-3.89889	similarity	-0.25938
-4.19992	simple	-0.26493
-4.19992	simply	-0.27558
-4.19992	simulate	-0.24755
-4.19992	sin	-0.27552
-3.02383	since	-0.32161
-3.89889	sincere	-0.27534
-4.19992	sinewy	-0.27537
-4.19992	singer	-0.26493
-3.72280	single	-0.27342
-4.19992	single-color	-0.27537
-4.19992	sinister	-0.27552
-4.19992	sister	-0.27526
-3.72280	sit	-0.24331
-4.19992	site	-0.27520
-4.19992	sitting	-0.27444
-4.19992	situation	-0.27479
-4.19992	sixty	-0.27549
-3.89889	sizable	-0.27555
-4.19992	size	-0.27526
-3.89889	sketched	-0.24752
-3.72280	sketches	-0.24848
-4.19992	skin	-0.27561
-4.19992	skullcap	-0.27319
-4.19992	sky	-0.27561
-4.19992	slate	-0.24866
-4.19992	sleeves	-0.27330
-3.89889	slender	-0.25968
-4.19992	slice	-0.27319
-3.59786	slight	-0.27546
-4.19992	slightly	-0.27552
-4.19992	slip	-0.27514
-4.19992	slipped	-0.27502
-4.19992	slouches	-0.27479
-3.89889	slow	-0.27333
-3.89889	slowly	-0.27555
-4.19992	sluiced	-0.27520
-4.19992	sluicehouse	-0.27319
-3.42177	small	-0.26436
-4.19992	smaller	-0.27552
-3.89889	smell	-0.21871
-4.19992	smile	-0.24866
-4.19992	smiled	-0.27330
-4.19992	smiles	-0.27546
-4.19992	smithy	-0.26493
-4.19992	smoke	-0.26493
-4.19992	smoothed	-0.27497
-4.19992	snaked	-0.27537
-4.19992	sniper's	-0.27561
-4.19992	snobbery	-0.27149
-2.64362	so	-0.43868
-4.19992	so-called	-0.27561
-3.35482	social	-0.27435
-4.19992	social-climbing	-0.27552
-4.19992	society	-0.27319
-4.19992	soft	-0.27561
-4.19992	softly	-0.27561
-3.72280	sold	-0.24746
-3.72280	soldier	-0.24634
-4.19992	soldiers	-0.27371
-4.19992	solicited	-0.27330
-4.19992	solid	-0.27543
-4.19992	solitary	-0.27561
-4.19992	solution	-0.27055
-3.89889	solutions	-0.27433
-2.69477	some	-0.30380
-4.19992	somebody	-0.27055
-3.89889	somehow	-0.27549
-3.72280	someone	-0.27450
-4.19992	someplace	-0.24866
-3.29683	something	-0.30539
-3.35482	sometimes	-0.26798
-4.19992	somewhat	-0.27269
-4.19992	somewhere	-0.26430
-3.24568	son	-0.28740
-4.19992	soon	-0.27269
-4.19992	sore	-0.27558
-3.89889	sought	-0.24752
-4.19992	sound	-0.26493
-4.19992	south	-0.27561
-4.19992	southeastern	-0.27555
-4.19992	southward	-0.27558
-4.19992	sovereignty	-0.27164
-4.19992	soviet	-0.27561
-4.19992	space	-0.24866
-4.19992	spacious	-0.27555
-4.19992	spanish	-0.27561
-4.19992	spasm	-0.25971
-3.89889	speak	-0.26917
-4.19992	speaking	-0.27287
-4.19992	specialize	-0.27561
-4.19992	specific	-0.27529
-4.19992	spectacle	-0.25971
-4.19992	spectator-type	-0.27534
-4.19992	spectators	-0.27371
-4.19992	spectrum	-0.25971
-4.19992	speedily	-0.24866
-4.19992	spell	-0.27485
-3.59786	spent	-0.24702
-4.19992	spices	-0.27348
-3.89889	spirit	-0.23170
-3.89889	spirito	-0.24863
-3.35482	spiritual	-0.42136
-4.19992	spiritually	-0.27561
-3.89889	splinter	-0.23170
-3.89889	spoke	-0.25587
-3.89889	spokesmen	-0.27322
-3.89889	sponsors	-0.27301
-4.19992	spontaneous	-0.27561
-4.19992	spoon	-0.27055
-3.72280	spots	-0.27447
-4.19992	spread	-0.27485
-3.42177	spring	-0.31396
-4.19992	springtime	-0.26493
-4.19992	sprouting	-0.24755
-4.19992	stacy	-0.27534
-4.19992	staff	-0.24866
-4.19992	stained	-0.27193
-4.19992	stallard	-0.27500
-4.19992	stalls	-0.27561
-4.19992	stamping	-0.27520
-3.42177	stand	-0.24322
-4.19992	standard	-0.27555
-3.72280	stands	-0.26299
-4.19992	stanley	-0.27561
-4.19992	stared	-0.26430
-3.72280	start	-0.27386
-3.42177	started	-0.27298
-3.89889	starting	-0.27537
-3.15853	state	-0.33339
-4.19992	stated	-0.27561
-4.19992	statement	-0.27319
-3.72280	states	-0.23404
-4.19992	statesmen	-0.27137
-4.19992	statistics	-0.27497
-4.19992	stature	-0.27257
-4.19992	status	-0.24866
-3.89889	statutes	-0.27386
-3.89889	stay	-0.24742
-4.19992	staying	-0.27561
-3.89889	stealing	-0.26427
-4.19992	steel	-0.27558
-4.19992	stems	-0.26493
-3.59786	step	-0.24606
-4.19992	stephenson	-0.25971
-4.19992	stick	-0.24866
-4.19992	stiff	-0.27269
-4.19992	stiffened	-0.27070
-4.19992	stiffening	-0.25971
-4.19992	stiffens	-0.27152
-3.42177	still	-0.26721
-3.08598	stock	-0.28614
-3.59786	stocks	-0.25769
-4.19992	stolidly	-0.24866
-3.89889	stone	-0.23170
-3.72280	stood	-0.44526
-3.89889	stop	-0.27374
-4.19992	store	-0.27287
-4.19992	storing	-0.27476
-3.89889	story	-0.23054
-3.72280	straight	-0.26475
-3.89889	straight-haired	-0.27377
-4.19992	straightens	-0.27540
-4.19992	strange	-0.27561
-3.89889	streets	-0.25968
-3.89889	strength	-0.56596
-4.19992	strenuous	-0.27555
-4.19992	stretching	-0.27476
-4.19992	strictly	-0.27561
-4.19992	string	-0.25971
-3.72280	strong	-0.27497
-3.89889	stronger	-0.27543
-4.19992	strongly	-0.27558
-4.19992	structural	-0.27558
-4.19992	structure	-0.25971
-3.89889	struggle	-0.24643
-4.19992	struggles	-0.27561
-3.89889	student	-0.27549
-3.59786	students	-0.26116
-3.89889	studied	-0.54858
-3.89889	studies	-0.25956
-3.29683	study	-0.29867
-4.19992	stumbled	-0.27482
-4.19992	stupendous	-0.27561
-4.19992	style	-0.27561
-4.19992	stylized	-0.27552
-4.19992	submit	-0.27149
-4.19992	substantive	-0.27558
-4.19992	subversive	-0.27319
-4.19992	subverted	-0.27401
-3.05379	success	-0.47080
-3.24568	successes	-0.41598
-4.19992	successful	-0.27555
-2.96947	such	-0.53691
-3.89889	suddenly	-0.27190
-3.72280	suggest	-0.24309
-4.19992	suggested	-0.27453
-4.19992	suggesting	-0.27561
-3.89889	suggestions	-0.27052
-4.19992	suggestive	-0.27386
-3.89889	suggests	-0.54858
-4.19992	suit	-0.27529
-4.19992	suitable	-0.27555
-4.19992	sullying	-0.27468
-3.72280	sum	-0.25331
-4.19992	summarize	-0.27561
-4.19992	summed	-0.27476
-4.19992	sun	-0.27555
-3.59786	sunday	-0.37329
-4.19992	sunday's	-0.27549
-3.89889	sundays	-0.26665
-4.19992	sunset	-0.27348
-4.19992	super-experiment	-0.27555
-4.19992	supplement	-0.27561
-3.50095	supplies	-0.23471
-3.72280	supply	-0.42333
-3.89889	support	-0.27152
-4.19992	suppose	-0.27149
-3.72280	supposed	-0.27546
-3.72280	sure	-0.26520
-4.19992	surface	-0.27433
-3.72280	surgeon	-0.27532
-4.19992	surprising	-0.24866
-4.19992	survival	-0.25971
-4.19992	suspect	-0.27149
-4.19992	suspected	-0.27540
-4.19992	sweazey	-0.27558
-4.19992	sweeping	-0.27269
-4.19992	sweet	-0.27561
-4.19992	sweet-faced	-0.27561
-4.19992	swiss	-0.27555
-4.19992	switzerland	-0.27149
-4.19992	sycophantic	-0.27561
-3.89889	symbol	-0.25787
-4.19992	symbolic	-0.27561
-4.19992	symbolically	-0.27561
-4.19992	symbolize	-0.24755
-4.19992	sympathize	-0.27193
-4.19992	synagogue	-0.27319
-3.59786	system	-0.25611
-4.19992	t.	-0.27561
-3.50095	table	-0.37030
-4.19992	tactics	-0.27193
-3.89889	tactile	-0.27555
-4.19992	tailor	-0.27537
-3.15853	take	-0.42422
-3.59786	taken	-0.27155
-4.19992	takes	-0.24755
-3.59786	taking	-0.24556
-4.19992	tale	-0.25971
-3.89889	talent	-0.27555
-3.72280	talk	-0.26704
-3.50095	talking	-0.49255
-4.19992	talks	-0.27193
-4.19992	tall	-0.27164
-4.19992	talmud	-0.27193
-4.19992	tantrum	-0.27561
-3.72280	target	-0.27052
-4.19992	tasks	-0.24866
-4.19992	tasteful	-0.27534
-4.19992	tastes	-0.27482
-4.19992	taught	-0.24866
-4.19992	tax	-0.27540
-4.19992	taxi	-0.27555
-3.89889	teach	-0.26406
-4.19992	teaching	-0.27558
-3.89889	team	-0.26382
-4.19992	tear	-0.27377
-4.19992	tech.	-0.27561
-4.19992	technical	-0.27549
-3.89889	techniques	-0.26484
-4.19992	telephone	-0.27555
-3.59786	tell	-0.39428
-4.19992	tell-tale	-0.27561
-3.72280	ten	-0.27540
-4.19992	tends	-0.27558
-4.19992	tenets	-0.24866
-4.19992	terms	-0.25971
-4.19992	terral	-0.26493
-3.89889	terrifies	-0.27386
-3.89889	terror	-0.25587
-4.19992	tests	-0.27149
-3.59786	texas	-0.24287
-4.19992	textbook	-0.27193
-4.19992	texture	-0.27348
-2.75276	than	-0.34947
-2.04763	that	-0.33238
-3.50095	that's	-0.27502
-1.22864	the	-0.38085
-4.19992	theatre	-0.27552
-4.19992	theatrical	-0.25971
-4.19992	theft	-0.27055
-2.58714	their	-0.30119
-2.68141	them	-0.30477
-4.19992	theme	-0.26430
-3.89889	themes	-0.25666
-3.72280	themselves	-0.24356
-3.24568	then	-0.25908
-4.19992	theory	-0.26493
-2.73752	there	-0.54593
-4.19992	there'd	-0.27479
-4.19992	there's	-0.26430
-3.35482	therefore	-0.25968
-2.76856	these	-0.30162
-2.45173	they	-0.34767
-4.19992	they're	-0.24755
-3.59786	they've	-0.39964
-4.19992	thick	-0.27558
-3.59786	thing	-0.24121
-3.42177	things	-0.25373
-3.35482	think	-0.32361
-4.19992	thinker	-0.27269
-3.89889	thinking	-0.24755
-4.19992	thinks	-0.24755
-3.89889	third	-0.24683
-3.89889	thirty	-0.27161
-2.22220	this	-0.41400
-3.89889	thomas	-0.27555
-4.19992	thompson	-0.27558
-2.94465	those	-0.54047
-3.24568	though	-0.27317
-3.42177	thought	-0.21472
-4.19992	thoughtfully	-0.27456
-4.19992	thoughts	-0.26493
-4.19992	thousand	-0.27508
-4.19992	threading	-0.27433
-4.19992	threatened	-0.27561
-3.05379	three	-0.51541
-4.19992	three-dice	-0.27529
-4.19992	throat	-0.26430
-2.96947	through	-0.31230
-3.72280	throughout	-0.72467
-4.19992	throwing	-0.27526
-4.19992	thumb	-0.27055
-4.19992	thursday	-0.27561
-3.72280	thus	-0.24593
-3.89889	tiber	-0.26928
-2.92117	time	-0.25781
-3.42177	times	-0.42109
-4.19992	tip	-0.27546
-4.19992	title	-0.27164
-2.06320	to	-0.47665
-4.19992	tobacco	-0.27561
-3.42177	today	-0.24388
-4.19992	today's	-0.27561
-3.24568	together	-0.24407
-4.19992	togetherness	-0.24866
-3.59786	told	-0.39929
-4.19992	tomatoes	-0.26493
-4.19992	tommie	-0.27561
-4.19992	tomorrow	-0.27450
-4.19992	tons	-0.27459
-2.92117	too	-0.37280
-3.72280	took	-0.26424
-3.89889	top	-0.27473
-4.19992	topic	-0.27514
-4.19992	topics	-0.27269
-4.19992	torso	-0.27348
-3.59786	toss	-0.24209
-3.42177	tossed	-0.34286
-4.19992	tosses	-0.27561
-3.29683	total	-0.43386
-4.19992	totaling	-0.27561
-4.19992	touch	-0.24755
-4.19992	touches	-0.27529
-4.19992	tour	-0.25971
-3.59786	toward	-0.37149
-4.19992	toweling	-0.27561
-3.89889	town	-0.27508
-4.19992	trabb	-0.27552
-4.19992	tracing	-0.25971
-3.89889	tract	-0.27537
-3.89889	trade	-0.26490
-3.89889	trading	-0.27532
-4.19992	tradition	-0.25971
-3.89889	traditional	-0.27540
-3.89889	traffic	-0.27263
-4.19992	tragedy	-0.27529
-4.19992	tragic	-0.27546
-4.19992	train	-0.27468
-3.89889	trained	-0.27444
-3.59786	training	-0.27134
-4.19992	traits	-0.27354
-3.89889	transfer	-0.25848
-4.19992	transfers	-0.27354
-3.89889	transition	-0.27468
-4.19992	translate	-0.27561
-4.19992	translated	-0.24866
-4.19992	translucence	-0.24866
-4.19992	traps	-0.27459
-4.19992	trastevere	-0.27555
-4.19992	travesty	-0.27558
-3.89889	treat	-0.27534
-4.19992	treated	-0.27401
-3.89889	treats	-0.27459
-4.19992	trees	-0.27558
-3.89889	tremendous	-0.54969
-3.89889	trend	-0.24863
-4.19992	trends	-0.27526
-4.19992	trestle	-0.27561
-2.94465	trial	-0.30734
-2.78495	trials	-0.51114
-3.72280	triandos	-0.26466
-4.19992	tribune	-0.27561
-4.19992	trick	-0.24866
-4.19992	tried	-0.27257
-4.19992	tries	-0.27561
-3.19992	trig	-0.37914
-4.19992	trig's	-0.27558
-4.19992	trigg	-0.27561
-4.19992	trigger	-0.27558
-4.19992	trim	-0.27453
-4.19992	triumphs	-0.24866
-4.19992	tropical	-0.27558
-3.50095	trouble	-0.34147
-3.89889	troubled	-0.57611
-4.19992	troubles	-0.25971
-4.19992	trousers-pockets	-0.26493
-4.19992	truck	-0.24866
-4.19992	true-false	-0.27561
-3.42177	try	-0.27357
-3.72280	trying	-0.27462
-4.19992	tshombe	-0.24755
-4.19992	tuesday	-0.24755
-4.19992	turmoil	-0.24866
-3.59786	turn	-0.25459
-4.19992	turned	-0.27164
-3.89889	turner	-0.23054
-4.19992	turns	-0.27485
-4.19992	tuscany	-0.27444
-3.59786	twenty	-0.57544
-4.19992	twenty-year	-0.27537
-4.19992	twirled	-0.27561
-4.19992	twist	-0.27529
-2.89889	two	-0.34231
-4.19992	two-class	-0.27555
-4.19992	typically	-0.27561
-3.89889	u.n.	-0.57640
-4.19992	u.n.-chartered	-0.27555
-3.89889	u.s.	-0.27123
-4.19992	un-american	-0.27386
-4.19992	unable	-0.27558
-3.89889	unanimity	-0.24606
-4.19992	unbroken	-0.27561
-4.19992	unchristian	-0.27529
-4.19992	uncomfortable	-0.27137
-4.19992	uncompromising	-0.27137
-4.19992	unconcern	-0.27137
-4.19992	unconcerned	-0.26493
-4.19992	uncover	-0.27257
-4.19992	undeniably	-0.27479
-3.19992	under	-0.26101
-4.19992	undergoing	-0.24866
-4.19992	underhanded	-0.26493
-4.19992	underneath	-0.24755
-3.72280	understand	-0.26353
-3.72280	understanding	-0.21984
-4.19992	underwater	-0.27540
-3.89889	underworld	-0.25787
-4.19992	underwriter	-0.27234
-4.19992	underwriters	-0.26493
-4.19992	underwriting	-0.27330
-4.19992	unearned	-0.27561
-3.89889	unfair	-0.26083
-4.19992	ungainly	-0.27354
-4.19992	unhappiness	-0.27459
-4.19992	unhappy	-0.27555
-4.19992	unification	-0.27193
-4.19992	uniforms	-0.27137
-4.19992	unifying	-0.27558
-4.19992	union	-0.26493
-4.19992	uniquely	-0.26493
-3.89889	unit	-0.57655
-4.19992	unite	-0.27193
-4.19992	united	-0.27552
-4.19992	universal	-0.27558
-4.19992	universe	-0.24866
-4.19992	unknown	-0.27502
-4.19992	unless	-0.27555
-4.19992	unlimited	-0.27558
-4.19992	unmoved	-0.24866
-4.19992	unnatural	-0.27561
-4.19992	unpredictably	-0.27561
-4.19992	unsupportable	-0.26493
-4.19992	unteach	-0.27453
-3.15853	until	-0.31753
-4.19992	unworthy	-0.27561
-2.72280	up	-0.30124
-4.19992	upheld	-0.27561
-4.19992	upholstery	-0.27526
-3.12074	upon	-0.40330
-4.19992	upper	-0.27529
-4.19992	upside	-0.27520
-4.19992	upward	-0.27137
-4.19992	urban	-0.27561
-4.19992	urge	-0.27468
-4.19992	urged	-0.26430
-3.59786	us	-0.39740
-3.24568	use	-0.25091
-3.35482	used	-0.26775
-4.19992	useful	-0.27558
-4.19992	useless	-0.27561
-4.19992	using	-0.26430
-4.19992	usual	-0.24866
-4.19992	usually	-0.27401
-4.19992	usurped	-0.27558
-4.19992	validate	-0.26430
-4.19992	valley	-0.27234
-3.50095	value	-0.47677
-3.89889	valued	-0.24506
-3.42177	values	-0.24187
-4.19992	vanity	-0.24866
-3.35482	variable	-0.38696
-3.89889	variables	-0.27502
-4.19992	variation	-0.27149
-3.72280	variety	-0.73684
-3.89889	various	-0.57661
-4.19992	varitinted	-0.27558
-4.19992	vary	-0.24866
-4.19992	vase	-0.24755
-4.19992	vatican	-0.27269
-4.19992	veers	-0.27561
-4.19992	veils	-0.27540
-3.89889	vein	-0.25941
-4.19992	ventures	-0.27517
-4.19992	verbally	-0.27395
-4.19992	vernal	-0.27558
-3.89889	versa	-0.24687
-4.19992	versions	-0.25971
-3.35482	very	-0.27421
-3.29683	vice	-0.70126
-4.19992	vice-president	-0.25971
-4.19992	vicelike	-0.27558
-4.19992	vicious	-0.27561
-4.19992	victorian	-0.27561
-4.19992	view	-0.24866
-3.89889	viewed	-0.57372
-4.19992	viewpoint	-0.27164
-4.19992	vigorously	-0.27561
-4.19992	village	-0.24755
-3.89889	violence	-0.27052
-4.19992	violets	-0.27319
-4.19992	virgin	-0.27371
-3.89889	visit	-0.24359
-3.89889	visitation	-0.57652
-4.19992	visited	-0.27505
-4.19992	visiting	-0.27433
-3.89889	visitors	-0.54969
-4.19992	visual	-0.27555
-4.19992	visually	-0.27485
-3.72280	vital	-0.27529
-4.19992	vivid	-0.27555
-4.19992	voice	-0.26493
-4.19992	volumes	-0.27348
-3.89889	volunteers	-0.23726
-3.59786	vote	-0.27011
-4.19992	voted	-0.27137
-3.50095	votes	-0.47543
-3.50095	voting	-0.22441
-3.89889	vows	-0.23170
-4.19992	vulgar	-0.27561
-4.19992	vulture-like	-0.27561
-3.59786	w.	-0.27523
-4.19992	wagon	-0.27552
-3.72280	walk	-0.27301
-4.19992	walked	-0.27540
-3.72280	walker	-0.27438
-3.72280	walking	-0.24746
-3.89889	wall	-0.27392
-4.19992	walsh	-0.27070
-3.50095	want	-0.27389
-4.19992	wanted	-0.27549
-3.72280	wanting	-0.27494
-3.89889	wants	-0.27497
-3.50095	war	-0.22948
-4.19992	wars	-0.27561
-2.14684	was	-0.32612
-4.19992	washed	-0.27485
-4.19992	washing	-0.27561
-4.19992	watching	-0.24755
-3.50095	water	-0.27508
-4.19992	water's	-0.27558
-4.19992	waterfront	-0.27540
-4.19992	wave	-0.27377
-4.19992	waved	-0.27152
-4.19992	wavy	-0.27549
-4.19992	wavy-haired	-0.27395
-3.59786	wax	-0.26505
-3.02383	way	-0.26528
-4.19992	ways	-0.25971
-4.19992	wayside	-0.26493
-2.49235	we	-0.36688
-4.19992	we'd	-0.27508
-4.19992	we're	-0.27549
-4.19992	weaknesses	-0.27354
-4.19992	weather	-0.24866
-4.19992	weaver	-0.25971
-4.19992	wednesday	-0.27558
-3.35482	week	-0.35954
-4.19992	week-end	-0.27561
-4.19992	weekend	-0.26493
-3.72280	weeks	-0.23167
-4.19992	weigh	-0.27508
-4.19992	weighs	-0.24755
-4.19992	weight	-0.24866
-3.59786	welcome	-0.19955
-4.19992	welfare	-0.24866
-3.12074	well	-0.31434
-4.19992	well-bound	-0.27561
-4.19992	well-defined	-0.27561
-3.89889	wemmick	-0.27546
-3.72280	went	-0.27070
-2.64362	were	-0.25479
-3.42177	west	-0.57643
-4.19992	western	-0.24866
-4.19992	westminster	-0.27319
-3.89889	wet	-0.24749
-2.62014	what	-0.33808
-4.19992	whatever	-0.27540
-2.62014	when	-0.40565
-2.99580	where	-0.29296
-4.19992	whereas	-0.27552
-4.19992	whereby	-0.24755
-3.59786	whether	-0.26606
-2.63172	which	-0.32872
-3.72280	while	-0.27459
-4.19992	whisky	-0.27555
-4.19992	whisky-on-the-rocks	-0.26430
-3.50095	white	-0.27430
-4.19992	whitney	-0.27561
-2.64362	who	-0.31450
-4.19992	who's	-0.27479
-3.50095	whole	-0.27453
-4.19992	wholesale	-0.27561
-3.89889	whom	-0.27240
-3.59786	whose	-0.27546
-3.42177	why	-0.34678
-3.89889	wide	-0.27523
-4.19992	widely	-0.27546
-3.59786	wife	-0.24253
-3.89889	wild	-0.27558
-4.19992	wilkes-barre	-0.24866
-2.60886	will	-0.29783
-3.89889	william	-0.27558
-3.89889	willy	-0.27546
-4.19992	wilson	-0.24866
-4.19992	win	-0.24755
-3.89889	winding	-0.27549
-4.19992	winding-clothes	-0.27193
-3.89889	window	-0.27444
-3.89889	winds	-0.24773
-4.19992	wing	-0.27549
-4.19992	winter	-0.27561
-4.19992	wipe	-0.27257
-4.19992	wiped	-0.27485
-4.19992	wiry	-0.27558
-4.19992	wise	-0.27540
-4.19992	wish	-0.27505
-2.09612	with	-0.46908
-4.19992	withered	-0.27468
-3.72280	within	-0.27532
-3.35482	without	-0.39271
-4.19992	witnesses	-0.24866
-4.19992	wolverton	-0.27561
-3.72280	woman	-0.27418
-3.59786	women	-0.35632
-4.19992	women's	-0.27537
-3.89889	won	-0.27546
-3.89889	won't	-0.27505
-4.19992	wondered	-0.27330
-4.19992	wooden	-0.27561
-4.19992	woodrow	-0.27561
-4.19992	word	-0.25971
-3.59786	words	-0.26086
-3.24568	work	-0.27353
-4.19992	workable	-0.27558
-3.72280	worked	-0.26716
-3.72280	working	-0.26855
-4.19992	workmen	-0.24866
-3.89889	works	-0.25587
-3.29683	world	-0.21904
-4.19992	world-wide	-0.27269
-4.19992	worldly	-0.27561
-4.19992	worried	-0.27377
-4.19992	worry	-0.27348
-3.72280	worship	-0.27482
-4.19992	worthwhile	-0.27561
-4.19992	worthy	-0.25971
-2.58714	would	-0.35909
-3.72280	wound	-0.42383
-4.19992	wounded	-0.27561
-4.19992	wrap	-0.27537
-4.19992	wrapped	-0.27257
-4.19992	wrists	-0.25971
-3.72280	write	-0.43959
-4.19992	writers	-0.24866
-3.89889	writes	-0.26344
-4.19992	writing	-0.27561
-4.19992	written	-0.27137
-4.19992	wrong	-0.27453
-4.19992	wrote	-0.24866
-4.19992	wryly	-0.27453
-3.29683	x	-0.44542
-4.19992	yards	-0.25971
-3.89889	ye	-0.27476
-2.83819	year	-0.47335
-4.19992	year's	-0.27561
-4.19992	year-to-year	-0.27561
-3.19992	years	-0.51354
-3.15853	yet	-0.32625
-3.72280	yield	-0.26305
-4.19992	yielded	-0.26430
-4.19992	yielding	-0.26430
-3.42177	york	-0.42429
-2.62014	you	-0.29374
-4.19992	you'd	-0.27534
-4.19992	you're	-0.27508
-3.35482	young	-0.33083
-4.19992	youngsters	-0.27555
-3.42177	your	-0.27500
-3.72280	youth	-0.26403

\2-grams:
-0.38021	! !	-0.54407
-0.38021	! </s>
-0.30103	$11.50 a	-0.29706
-0.60206	$12.50 a	-0.29706
-0.60206	$12.50 with	-0.29932
-0.30103	$15.5 million	-0.22185
-0.30103	$17 a	-0.29706
-0.30103	$22 a	-0.29706
-0.30103	$500,000 three	-0.28524
-0.30103	$8.5 million	-0.22185
-0.60206	& company's
-0.60206	& turner	-0.17609
-0.30103	'low nigras
-0.30103	( ones	-0.24304
-0.03386	) </s>
-1.60206	) with	-0.29932
-0.60206	, fla.
-0.60206	, march	-0.26885
-0.01047	. </s>
-1.30103	0 0	-0.17609
-0.60206	0 1	-0.16481
-1.30103	0 and	-0.30043
-0.82391	0 or	-0.59125
-1.30103	0 through	-0.28807
-0.82391	0 to	-0.29785
-0.30103	0.1 of	-0.30063
-0.30103	0.16 would	-0.28484
-0.30103	0.36 of	-0.20321
-0.12494	0.6 of	-0.50424
-0.30103	0.70 agree	-0.22185
-0.93785	1 )	0.52288
-1.41497	1 .	1.32222
-1.41497	1 0	-0.17609
-1.41497	1 2	-0.28083
-0.71600	1 </s>
-1.41497	1 or	-0.29746
-1.41497	1 success	-0.17609
-1.41497	1 there	-0.27796
-1.41497	1 time	-0.28945
-1.41497	1 with	-0.29587
-0.30103	1,080,062 additions
-0.30103	1,212,000 or	-0.29746
-0.30103	1,419,833 at	-0.15761
-0.30103	1,541,991 a	-0.30047
-1.00000	10 )	0.82391
-1.00000	10 .	1.32222
-1.00000	10 companies	-0.22185
-1.00000	10 shares	-0.23045
-1.00000	10 times	-0.26324
-1.00000	100 and	-0.30043
-1.00000	100 firms	-0.26885
-0.30103	100 shares	-0.11394
-0.77815	11 )	0.82391
-0.77815	11 participating	-0.17609
-0.77815	11 states	-0.22185
-0.30103	11,744 </s>
-0.60206	12 months	-0.24304
-0.60206	12 per	1.04139
-0.30103	122,158 </s>
-0.60206	14 per	1.04139
-0.60206	14 years	-0.17609
-0.30103	1492 drove
-0.30103	17 .	1.32222
-0.30103	1700 and	-0.29924
-0.30103	1834 </s>
-0.30103	185,000 to	-0.17503
-0.30103	1896 </s>
-0.30103	1899 </s>
-0.30103	1900 with	-0.29932
-0.30103	1900's </s>
-0.30103	1910 of	-0.30063
-0.30103	1912 </s>
-0.30103	1921 </s>
-0.30103	1928 </s>
-0.30103	1930 they	-0.29713
-0.60206	1953 and	-0.27332
-0.60206	1953 california	0.30103
-0.30103	1957 </s>
-0.30103	1959 </s>
-1.00000	1960 </s>
-1.00000	1960 and	-0.30043
-1.00000	1960 earnings
-1.00000	1960 new	-0.28255
-1.00000	1960 there	-0.29348
-0.90309	1961 </s>
-0.90309	1961 than	-0.27712
-0.90309	1961 total	-0.13830
-0.90309	1961 were	-0.29496
-0.86530	2 )	0.52288
-0.86530	2 .	1.02119
-1.34242	2 3	-0.28255
-0.86530	2 </s>
-1.34242	2 each	-0.27371
-1.34242	2 of	-0.30063
-1.34242	2 or	-0.29746
-1.34242	2 times	-0.17609
-0.30103	2,963 </s>
-0.30103	20 weeks	-0.22185
-0.30103	200 employes	-0.17609
-0.30103	21 per	1.04139
-0.30103	22 seats
-0.30103	22-acre site
-0.60206	23 per	1.04139
-0.60206	23 will	-0.29543
-0.60206	25 and	-0.30043
-0.60206	25 home	-0.27875
-0.90309	3 )	0.52288
-1.38021	3 .	1.32222
-1.38021	3 4	-0.26324
-0.90309	3 </s>
-1.38021	3 ?	-0.00599
-1.38021	3 all	-0.28597
-1.38021	3 and	-0.30043
-1.38021	3 students	-0.24304
-1.38021	3 times	-0.17609
-1.38021	3 trials	-0.25712
-0.30103	3,000 mark
-0.30103	3,399 sales	-0.27621
-0.30103	3-month total	-0.13830
-0.30103	30 years	-0.23045
-0.30103	33 honored	-0.17609
-0.30103	36 per	1.04139
-1.07918	4 )	0.82391
-1.07918	4 .	1.32222
-1.07918	4 </s>
-1.07918	4 or	-0.29746
-1.07918	4 the	-0.29940
-1.07918	4 we	-0.29675
-0.30103	4,122,354 new	-0.01190
-0.30103	4,441 this	-0.29874
-0.30103	4,499,608 members	-0.29373
-0.30103	4,622,444 </s>
-0.12494	40 per	0.74036
-0.60206	400 people	-0.26531
-0.60206	400 shares	-0.27875
-0.30103	41 underwriters
-0.30103	45 per	1.04139
-0.30103	46th time	-0.28945
-0.72700	5 )	0.52288
-0.72700	5 </s>
-1.20412	5 if	-0.17168
-1.20412	5 per	1.04139
-1.20412	5 shots	-0.26324
-1.20412	5 times	-0.17609
-0.30103	5,000 reserved	-0.17609
-0.30103	5-5 on	-0.29844
-0.30103	50 </s>
-0.30103	500 juniors
-0.30103	52 selling	-0.17609
-0.30103	52-year history	-0.25527
-0.52288	6 )	0.52288
-1.00000	6 </s>
-1.00000	6 p.m.
-1.00000	6 planning
-0.30103	60 days	-0.25527
-0.30103	64-cent anticipated
-0.30103	65 </s>
-0.30103	7 )	0.52288
-0.77815	7 </s>
-0.30103	7,360,187 members	-0.29373
-0.30103	7,484,268 members	-0.24715
-0.77815	7-1 .	1.32222
-0.77815	7-1 illustrates
-0.77815	7-1 shows	0.30103
-0.30103	700 employees
-0.30103	78-79 </s>
-0.30103	8 )	0.52288
-0.77815	8 </s>
-0.30103	80 per	1.04139
